{"learner":{"attributes":{"scikit_learn":"{\"_estimator_type\": \"ranker\"}"},"feature_names":["bm25_score","normalized_bm25_score","exact_skill_overlap_count","exact_skill_overlap_ratio","title_token_overlap_ratio","years_experience_estimate"],"feature_types":["float","float","int","float","float","float"],"gradient_booster":{"model":{"cats":{"enc":[],"feature_segments":[],"sorted_idx":[]},"gbtree_model_param":{"num_parallel_tree":"1","num_trees":"300"},"iteration_indptr":[0,1,2,3,4,5,6,7,8,9,10,11,12,13,14,15,16,17,18,19,20,21,22,23,24,25,26,27,28,29,30,31,32,33,34,35,36,37,38,39,40,41,42,43,44,45,46,47,48,49,50,51,52,53,54,55,56,57,58,59,60,61,62,63,64,65,66,67,68,69,70,71,72,73,74,75,76,77,78,79,80,81,82,83,84,85,86,87,88,89,90,91,92,93,94,95,96,97,98,99,100,101,102,103,104,105,106,107,108,109,110,111,112,113,114,115,116,117,118,119,120,121,122,123,124,125,126,127,128,129,130,131,132,133,134,135,136,137,138,139,140,141,142,143,144,145,146,147,148,149,150,151,152,153,154,155,156,157,158,159,160,161,162,163,164,165,166,167,168,169,170,171,172,173,174,175,176,177,178,179,180,181,182,183,184,185,186,187,188,189,190,191,192,193,194,195,196,197,198,199,200,201,202,203,204,205,206,207,208,209,210,211,212,213,214,215,216,217,218,219,220,221,222,223,224,225,226,227,228,229,230,231,232,233,234,235,236,237,238,239,240,241,242,243,244,245,246,247,248,249,250,251,252,253,254,255,256,257,258,259,260,261,262,263,264,265,266,267,268,269,270,271,272,273,274,275,276,277,278,279,280,281,282,283,284,285,286,287,288,289,290,291,292,293,294,295,296,297,298,299,300],"tree_info":[0,0,0,0,0,0,0,0,0,0,0,0,0,0,0,0,0,0,0,0,0,0,0,0,0,0,0,0,0,0,0,0,0,0,0,0,0,0,0,0,0,0,0,0,0,0,0,0,0,0,0,0,0,0,0,0,0,0,0,0,0,0,0,0,0,0,0,0,0,0,0,0,0,0,0,0,0,0,0,0,0,0,0,0,0,0,0,0,0,0,0,0,0,0,0,0,0,0,0,0,0,0,0,0,0,0,0,0,0,0,0,0,0,0,0,0,0,0,0,0,0,0,0,0,0,0,0,0,0,0,0,0,0,0,0,0,0,0,0,0,0,0,0,0,0,0,0,0,0,0,0,0,0,0,0,0,0,0,0,0,0,0,0,0,0,0,0,0,0,0,0,0,0,0,0,0,0,0,0,0,0,0,0,0,0,0,0,0,0,0,0,0,0,0,0,0,0,0,0,0,0,0,0,0,0,0,0,0,0,0,0,0,0,0,0,0,0,0,0,0,0,0,0,0,0,0,0,0,0,0,0,0,0,0,0,0,0,0,0,0,0,0,0,0,0,0,0,0,0,0,0,0,0,0,0,0,0,0,0,0,0,0,0,0,0,0,0,0,0,0,0,0,0,0,0,0,0,0,0,0,0,0,0,0,0,0,0,0,0,0,0,0,0,0,0,0,0,0,0,0],"trees":[{"base_weights":[-1.0394187E-2,-4.140103E-2,4.1975906E-1,-7.846598E-3,4.6122524E-1,3.6702177E-1,2.8717587E-2,2.0710684E-2,2.0070232E-3],"categories":[],"categories_nodes":[],"categories_segments":[],"categories_sizes":[],"default_left":[0,0,0,0,0,0,0,0,0],"id":0,"left_children":[1,-1,3,-1,5,7,-1,-1,-1],"loss_changes":[2.7442495E1,0E0,1.3681717E0,0E0,9.245205E-2,4.5822287E-1,0E0,0E0,0E0],"parents":[2147483647,0,0,2,2,4,4,5,5],"right_children":[2,-1,4,-1,6,8,-1,-1,-1],"split_conditions":[2E0,-4.140103E-2,7.680651E-1,-7.846598E-3,2.685185E-1,2.6086956E-1,2.8717587E-2,2.0710684E-2,2.0070232E-3],"split_indices":[5,0,1,0,3,3,0,0,0],"split_type":[0,0,0,0,0,0,0,0,0],"sum_hessian":[7.405063E1,2.489012E1,4.9160507E1,2.924122E0,4.6236385E1,2.9859917E1,1.6376469E1,2.5625954E1,4.233961E0],"tree_param":{"num_deleted":"0","num_feature":"6","num_nodes":"9","size_leaf_vector":"1"}},{"base_weights":[1.9025268E-2,-2.5180113E-1,2.81076E-1,-4.421391E-1,-1.2254362E-1,1.3074209E-1,3.6174428E-2,-2.5708264E-1,-5.164609E-1,2.3714848E-1,-1.8287617E-1,3.125976E-2,5.341803E-2,-2.5463048E-2,-1.7976732E-3,-3.36599E-2,-1.4398187E-2,2.2114338E-2,-5.1445765E-3,-1.3455266E-2,2.7515423E-3,-1.7879207E-2,6.596909E-3],"categories":[],"categories_nodes":[],"categories_segments":[],"categories_sizes":[],"default_left":[0,0,0,0,0,0,0,0,0,0,0,0,0,0,0,0,0,0,0,0,0,0,0],"id":1,"left_children":[1,3,5,7,9,11,-1,13,15,17,19,-1,21,-1,-1,-1,-1,-1,-1,-1,-1,-1,-1],"loss_changes":[1.2157315E1,1.9659905E0,5.5966697E0,1.9291067E-1,1.2364864E0,2.5089922E0,0E0,7.180663E-1,3.93023E-1,6.826099E-1,9.835439E-1,0E0,2.0450854E0,0E0,0E0,0E0,0E0,0E0,0E0,0E0,0E0,0E0,0E0],"parents":[2147483647,0,0,1,1,2,2,3,3,4,4,5,5,7,7,8,8,9,9,10,10,12,12],"right_children":[2,4,6,8,10,12,-1,14,16,18,20,-1,22,-1,-1,-1,-1,-1,-1,-1,-1,-1,-1],"split_conditions":[2.685185E-1,8.6081004E-1,9.43009E-1,1.1825467E2,2.038835E-1,1.2141104E2,3.6174428E-2,1.1078439E2,1.3974184E2,9.0125465E-1,9.242445E-1,3.125976E-2,1.392897E2,-2.5463048E-2,-1.7976732E-3,-3.36599E-2,-1.4398187E-2,2.2114338E-2,-5.1445765E-3,-1.3455266E-2,2.7515423E-3,-1.7879207E-2,6.596909E-3],"split_indices":[3,1,1,0,3,0,0,0,0,1,1,0,0,0,0,0,0,0,0,0,0,0,0],"split_type":[0,0,0,0,0,0,0,0,0,0,0,0,0,0,0,0,0,0,0,0,0,0,0],"sum_hessian":[1.6730705E2,8.2314354E1,8.49927E1,3.1333313E1,5.098104E1,6.537052E1,1.9622179E1,1.1533569E1,1.9799744E1,6.481011E0,4.450003E1,6.9239764E0,5.844654E1,4.170957E0,7.3626122E0,9.435253E0,1.036449E1,3.6672583E0,2.8137527E0,3.2469296E1,1.2030733E1,8.234769E0,5.0211773E1],"tree_param":{"num_deleted":"0","num_feature":"6","num_nodes":"23","size_leaf_vector":"1"}},{"base_weights":[-3.1305975E-3,-7.9551774E-1,2.1536878E-1,-4.1779116E-2,-1.3213604E-2,-2.6641283E-2,5.8286715E-1,6.711326E-2,-3.059135E-1,3.2646573E-1,6.9700104E-1,-1.614005E-2,8.821186E-3,-2.0997962E-2,-1.3208225E-3,2.1857891E-2,-2.092016E-3,3.7469327E-2,5.602718E-3],"categories":[],"categories_nodes":[],"categories_segments":[],"categories_sizes":[],"default_left":[0,0,0,0,0,0,0,0,0,0,0,0,0,0,0,0,0,0,0],"id":2,"left_children":[1,3,5,-1,-1,7,9,11,13,15,17,-1,-1,-1,-1,-1,-1,-1,-1],"loss_changes":[2.6084637E1,2.514286E-1,1.0536247E1,0E0,0E0,1.955847E0,9.1993713E-1,2.5173645E0,5.7516193E-1,7.800069E-1,7.743721E-1,0E0,0E0,0E0,0E0,0E0,0E0,0E0,0E0],"parents":[2147483647,0,0,1,1,2,2,5,5,6,6,7,7,8,8,9,9,10,10],"right_children":[2,4,6,-1,-1,8,10,12,14,16,18,-1,-1,-1,-1,-1,-1,-1,-1],"split_conditions":[2E0,3.030303E-1,9.2261994E-1,-4.1779116E-2,-1.3213604E-2,6E0,2.6732674E-1,8.364984E-1,2.7722773E-1,1.5715105E2,1.9335536E2,-1.614005E-2,8.821186E-3,-2.0997962E-2,-1.3208225E-3,2.1857891E-2,-2.092016E-3,3.7469327E-2,5.602718E-3],"split_indices":[5,3,1,0,0,5,3,1,3,0,0,0,0,0,0,0,0,0,0],"split_type":[0,0,0,0,0,0,0,0,0,0,0,0,0,0,0,0,0,0,0],"sum_hessian":[1.4668059E2,3.0562859E1,1.1611774E2,2.735416E1,3.2086983E0,7.113075E1,4.498698E1,5.4390633E1,1.674012E1,1.623526E1,2.8751722E1,1.1054109E1,4.3336525E1,1.1175126E1,5.564995E0,1.2195958E1,4.0393023E0,2.5872448E1,2.8792734E0],"tree_param":{"num_deleted":"0","num_feature":"6","num_nodes":"19","size_leaf_vector":"1"}},{"base_weights":[-3.452917E-3,-2.2632322E-1,3.307295E-1,-3.25977E-2,-1.0675287E-1,4.4171575E-2,5.1875305E-1,-2.3313922E-1,8.635864E-2,2.6862818E-1,-1.4395979E-1,5.880122E-1,7.292679E-2,9.9345185E-3,-1.7503006E-2,2.222079E-2,-1.7244952E-4,-3.7205876E-3,2.0241184E-2,-1.9943057E-2,1.0816702E-3,7.062131E-3,3.3840023E-2,9.201209E-3,-3.6995385E-3],"categories":[],"categories_nodes":[],"categories_segments":[],"categories_sizes":[],"default_left":[0,0,0,0,0,0,0,0,0,0,0,0,0,0,0,0,0,0,0,0,0,0,0,0,0],"id":3,"left_children":[1,3,5,-1,7,9,11,13,15,17,19,21,23,-1,-1,-1,-1,-1,-1,-1,-1,-1,-1,-1,-1],"loss_changes":[1.0583188E1,4.1982164E0,3.0177245E0,0E0,1.7225366E0,1.1209108E0,9.68585E-1,2.2698512E0,9.2676353E-1,6.1932725E-1,6.397104E-1,9.6995735E-1,1.3943887E-1,0E0,0E0,0E0,0E0,0E0,0E0,0E0,0E0,0E0,0E0,0E0,0E0],"parents":[2147483647,0,0,1,1,2,2,4,4,5,5,6,6,7,7,8,8,9,9,10,10,11,11,12,12],"right_children":[2,4,6,-1,8,10,12,14,16,18,20,22,24,-1,-1,-1,-1,-1,-1,-1,-1,-1,-1,-1,-1],"split_conditions":[9.2261994E-1,8.378235E-1,2.7102804E-1,-3.25977E-2,2.685185E-1,1.27643364E2,1.8857129E2,2.038835E-1,1.2199516E2,2.2330096E-1,1.309175E2,9.43009E-1,9.363461E-1,9.9345185E-3,-1.7503006E-2,2.222079E-2,-1.7244952E-4,-3.7205876E-3,2.0241184E-2,-1.9943057E-2,1.0816702E-3,7.062131E-3,3.3840023E-2,9.201209E-3,-3.6995385E-3],"split_indices":[1,1,3,0,3,0,0,3,0,3,0,1,1,0,0,0,0,0,0,0,0,0,0,0,0],"split_type":[0,0,0,0,0,0,0,0,0,0,0,0,0,0,0,0,0,0,0,0,0,0,0,0,0],"sum_hessian":[1.380856E2,8.322642E1,5.4859188E1,1.6299757E1,6.692666E1,2.2713085E1,3.2146107E1,4.0201374E1,2.6725285E1,9.966481E0,1.2746604E1,2.7271605E1,4.8745008E0,8.267589E0,3.1933786E1,3.7755098E0,2.2949776E1,3.0902503E0,6.8762307E0,3.9101937E0,8.8364105E0,5.380294E0,2.189131E1,2.4879818E0,2.386519E0],"tree_param":{"num_deleted":"0","num_feature":"6","num_nodes":"25","size_leaf_vector":"1"}},{"base_weights":[-1.6578615E-2,-2.4948199E-1,3.2690355E-1,-6.6328406E-1,-1.3628834E-1,-1.4919353E-2,3.8347214E-1,-3.6101997E-2,-1.3195899E-2,-2.7967083E-1,5.203601E-2,1.79701E-1,4.9697867E-1,9.171168E-3,-1.868111E-2,2.0600794E-2,-1.3712962E-3,2.331456E-2,1.3322541E-3,2.7368763E-2,2.7781937E-3],"categories":[],"categories_nodes":[],"categories_segments":[],"categories_sizes":[],"default_left":[0,0,0,0,0,0,0,0,0,0,0,0,0,0,0,0,0,0,0,0,0],"id":4,"left_children":[1,3,5,7,9,-1,11,-1,-1,13,15,17,19,-1,-1,-1,-1,-1,-1,-1,-1],"loss_changes":[1.0763811E1,3.5711312E0,2.1534433E0,1.046133E-2,1.7954295E0,0E0,9.9570084E-1,0E0,0E0,1.7665296E0,8.7964505E-1,9.0930355E-1,6.3936377E-1,0E0,0E0,0E0,0E0,0E0,0E0,0E0,0E0],"parents":[2147483647,0,0,1,1,2,2,3,3,4,4,6,6,9,9,10,10,11,11,12,12],"right_children":[2,4,6,8,10,-1,12,-1,-1,14,16,18,20,-1,-1,-1,-1,-1,-1,-1,-1],"split_conditions":[9.2261994E-1,8.364984E-1,2.2330096E-1,1.4418715E2,2.685185E-1,-1.4919353E-2,2.7102804E-1,-3.6101997E-2,-1.3195899E-2,2.038835E-1,1.2199516E2,2.3232323E-1,1.9037904E2,9.171168E-3,-1.868111E-2,2.0600794E-2,-1.3712962E-3,2.331456E-2,1.3322541E-3,2.7368763E-2,2.7781937E-3],"split_indices":[1,1,3,0,3,0,3,0,0,3,0,3,0,0,0,0,0,0,0,0,0],"split_type":[0,0,0,0,0,0,0,0,0,0,0,0,0,0,0,0,0,0,0,0,0],"sum_hessian":[1.3051178E2,7.810132E1,5.241047E1,1.4687772E1,6.3413548E1,3.6388006E0,4.8771667E1,1.13953285E1,3.2924428E0,3.5451855E1,2.7961695E1,1.9296402E1,2.9475264E1,5.658076E0,2.9793777E1,3.5426364E0,2.441906E1,5.292798E0,1.4003604E1,2.6023994E1,3.45127E0],"tree_param":{"num_deleted":"0","num_feature":"6","num_nodes":"21","size_leaf_vector":"1"}},{"base_weights":[1.1871622E-2,-7.705446E-1,2.701887E-1,-4.111847E-2,-3.7282547E-1,6.3126735E-2,4.779738E-1,-1.6084682E-3,-2.4797749E-2,-2.615194E-2,1.1902978E-1,4.9707556E-1,8.2602724E-4,-1.5107201E-2,8.343742E-3,2.5784118E-2,3.7090152E-3],"categories":[],"categories_nodes":[],"categories_segments":[],"categories_sizes":[],"default_left":[0,0,0,0,0,0,0,0,0,0,0,0,0,0,0,0,0],"id":5,"left_children":[1,3,5,-1,7,9,11,-1,-1,-1,13,15,-1,-1,-1,-1,-1],"loss_changes":[2.7334799E1,7.88784E-2,4.311324E0,0E0,2.8391552E-1,1.8677117E0,4.279337E-1,0E0,0E0,0E0,1.1123226E0,3.038597E-1,0E0,0E0,0E0,0E0,0E0],"parents":[2147483647,0,0,1,1,2,2,4,4,5,5,6,6,10,10,11,11],"right_children":[2,4,6,-1,8,10,12,-1,-1,-1,14,16,-1,-1,-1,-1,-1],"split_conditions":[2E0,3.030303E-1,2.7102804E-1,-4.111847E-2,3.1632653E-1,1E0,1.9335536E2,-1.6084682E-3,-2.4797749E-2,-2.615194E-2,1.1365934E2,3.5E1,8.2602724E-4,-1.5107201E-2,8.343742E-3,2.5784118E-2,3.7090152E-3],"split_indices":[5,3,3,0,3,4,0,0,0,0,0,2,0,0,0,0,0],"split_type":[0,0,0,0,0,0,0,0,0,0,0,0,0,0,0,0,0],"sum_hessian":[1.3118597E2,3.157689E1,9.960909E1,2.6047361E1,5.52953E0,5.119744E1,4.8411648E1,2.1377246E0,3.3918054E0,3.0025167E0,4.8194923E1,4.6339058E1,2.0725906E0,3.8320222E0,4.4362904E1,4.3965805E1,2.3732502E0],"tree_param":{"num_deleted":"0","num_feature":"6","num_nodes":"17","size_leaf_vector":"1"}},{"base_weights":[1.9775467E-2,-2.0583054E-1,3.4380907E-1,-3.040973E-2,-9.8312475E-2,1.3816641E-1,4.7288293E-1,-2.3803446E-1,7.760657E-2,2.8784394E-1,-5.2052755E-2,1.0965289E-1,2.9891312E-2,8.122302E-3,-1.6647445E-2,1.8845363E-2,6.3223013E-4,-4.25115E-3,1.8953335E-2,-1.4275315E-2,3.8813918E-3,2.0409776E-2,-5.71301E-3],"categories":[],"categories_nodes":[],"categories_segments":[],"categories_sizes":[],"default_left":[0,0,0,0,0,0,0,0,0,0,0,0,0,0,0,0,0,0,0,0,0,0,0],"id":6,"left_children":[1,3,5,-1,7,9,11,13,15,17,19,21,-1,-1,-1,-1,-1,-1,-1,-1,-1,-1,-1],"loss_changes":[9.389673E0,3.1609955E0,1.2674875E0,0E0,1.566464E0,6.887472E-1,1.3001375E0,1.4451513E0,5.5536234E-1,5.1532483E-1,4.0407437E-1,7.965718E-1,0E0,0E0,0E0,0E0,0E0,0E0,0E0,0E0,0E0,0E0,0E0],"parents":[2147483647,0,0,1,1,2,2,4,4,5,5,6,6,7,7,8,8,9,9,10,10,11,11],"right_children":[2,4,6,-1,8,10,12,14,16,18,20,22,-1,-1,-1,-1,-1,-1,-1,-1,-1,-1,-1],"split_conditions":[9.2261994E-1,8.378235E-1,2.7102804E-1,-3.040973E-2,2.685185E-1,1.2794308E2,9.458186E-1,2.0588236E-1,1.2141104E2,2.2580644E-1,1.309175E2,9.3141586E-1,2.9891312E-2,8.122302E-3,-1.6647445E-2,1.8845363E-2,6.3223013E-4,-4.25115E-3,1.8953335E-2,-1.4275315E-2,3.8813918E-3,2.0409776E-2,-5.71301E-3],"split_indices":[1,1,3,0,3,0,1,3,0,3,0,1,0,0,0,0,0,0,0,0,0,0,0],"split_type":[0,0,0,0,0,0,0,0,0,0,0,0,0,0,0,0,0,0,0,0,0,0,0],"sum_hessian":[1.2450674E2,7.38316E1,5.0675137E1,1.3604867E1,6.022673E1,2.1138235E1,2.9536901E1,3.3173122E1,2.705361E1,1.1255326E1,9.88291E0,8.520807E0,2.1016094E1,6.083117E0,2.7090006E1,3.1119447E0,2.3941664E1,2.239096E0,9.01623E0,2.671107E0,7.211803E0,2.9463844E0,5.574423E0],"tree_param":{"num_deleted":"0","num_feature":"6","num_nodes":"23","size_leaf_vector":"1"}},{"base_weights":[2.2663956E-3,-7.3791933E-1,2.4059124E-1,-3.9517812E-2,-1.1891349E-2,1.9142618E-2,5.130201E-1,-4.8954955E-1,1.17159255E-1,-3.8834915E-3,5.4790723E-1,-2.8408518E-2,-5.480883E-3,1.1028207E-2,-1.4941551E-2,2.8918115E-2,2.672861E-3],"categories":[],"categories_nodes":[],"categories_segments":[],"categories_sizes":[],"default_left":[0,0,0,0,0,0,0,0,0,0,0,0,0,0,0,0,0],"id":7,"left_children":[1,3,5,-1,-1,7,9,11,13,-1,15,-1,-1,-1,-1,-1,-1],"loss_changes":[2.1963625E1,4.1931915E-1,5.6614146E0,0E0,0E0,2.8082485E0,9.536381E-1,1.4766741E-1,2.149592E0,0E0,5.411701E-1,0E0,0E0,0E0,0E0,0E0,0E0],"parents":[2147483647,0,0,1,1,2,2,5,5,6,6,7,7,8,8,10,10],"right_children":[2,4,6,-1,-1,8,10,12,14,-1,16,-1,-1,-1,-1,-1,-1],"split_conditions":[2E0,3.030303E-1,9.2261994E-1,-3.9517812E-2,-1.1891349E-2,8.364984E-1,2.2330096E-1,1.3974184E2,6E0,-3.8834915E-3,1.9335536E2,-2.8408518E-2,-5.480883E-3,1.1028207E-2,-1.4941551E-2,2.8918115E-2,2.672861E-3],"split_indices":[5,3,1,0,0,1,3,0,5,0,0,0,0,0,0,0,0],"split_type":[0,0,0,0,0,0,0,0,0,0,0,0,0,0,0,0,0],"sum_hessian":[1.20494225E2,2.8326296E1,9.216793E1,2.4587362E1,3.738933E0,5.2021698E1,4.0146233E1,7.11367E0,4.490803E1,2.102093E0,3.804414E1,5.07299E0,2.04068E0,3.6719933E1,8.188096E0,3.5517086E1,2.5270524E0],"tree_param":{"num_deleted":"0","num_feature":"6","num_nodes":"17","size_leaf_vector":"1"}},{"base_weights":[9.060768E-3,-2.182805E-1,3.445459E-1,-2.9858058E-2,-1.2127372E-1,1.5670115E-1,4.5083538E-1,-2.3807439E-1,5.3827137E-2,2.7490535E-1,-2.5587135E-3,5.167661E-1,-1.1105991E-3,3.8120733E-3,-1.48217995E-2,6.5802718E-3,-8.233474E-3,4.548699E-3,1.8566545E-2,-1.1090606E-2,5.0211046E-3,1.0753589E-2,2.8451327E-2],"categories":[],"categories_nodes":[],"categories_segments":[],"categories_sizes":[],"default_left":[0,0,0,0,0,0,0,0,0,0,0,0,0,0,0,0,0,0,0,0,0,0,0],"id":8,"left_children":[1,3,5,-1,7,9,11,13,15,17,19,21,-1,-1,-1,-1,-1,-1,-1,-1,-1,-1,-1],"loss_changes":[9.388261E0,2.55368E0,8.510084E-1,0E0,1.2724668E0,3.972103E-1,9.796448E-1,7.2281027E-1,4.856245E-1,1.4680076E-1,2.9153198E-1,1.8101168E-1,0E0,0E0,0E0,0E0,0E0,0E0,0E0,0E0,0E0,0E0,0E0],"parents":[2147483647,0,0,1,1,2,2,4,4,5,5,6,6,7,7,8,8,9,9,10,10,11,11],"right_children":[2,4,6,-1,8,10,12,14,16,18,20,22,-1,-1,-1,-1,-1,-1,-1,-1,-1,-1,-1],"split_conditions":[9.2200404E-1,8.378235E-1,2.6732674E-1,-2.9858058E-2,2.7184466E-1,1.27643364E2,1.9037904E2,2.038835E-1,9.0238553E-1,1.193902E2,1.3046043E2,9.43009E-1,-1.1105991E-3,3.8120733E-3,-1.48217995E-2,6.5802718E-3,-8.233474E-3,4.548699E-3,1.8566545E-2,-1.1090606E-2,5.0211046E-3,1.0753589E-2,2.8451327E-2],"split_indices":[1,1,3,0,3,0,0,3,1,0,0,1,0,0,0,0,0,0,0,0,0,0,0],"split_type":[0,0,0,0,0,0,0,0,0,0,0,0,0,0,0,0,0,0,0,0,0,0,0],"sum_hessian":[1.1912091E2,7.142114E1,4.7699768E1,1.2456781E1,5.8964363E1,1.902521E1,2.867456E1,3.4939053E1,2.4025309E1,1.0086572E1,8.938638E0,2.5004707E1,3.669854E0,5.375531E0,2.9563522E1,1.8304726E1,5.7205834E0,4.806024E0,5.2805476E0,2.1190968E0,6.819541E0,5.202423E0,1.9802284E1],"tree_param":{"num_deleted":"0","num_feature":"6","num_nodes":"23","size_leaf_vector":"1"}},{"base_weights":[1.0301743E-2,-7.126154E-1,2.345651E-1,-3.7689585E-2,-1.1998051E-2,2.4416326E-2,4.4475585E-1,-2.395652E-2,7.388638E-2,4.636998E-1,7.198275E-3,9.191775E-3,-6.364543E-3,1.7501296E-2,2.787369E-2],"categories":[],"categories_nodes":[],"categories_segments":[],"categories_sizes":[],"default_left":[0,0,0,0,0,0,0,0,0,0,0,0,0,0,0],"id":9,"left_children":[1,3,5,-1,-1,7,9,-1,11,13,-1,-1,-1,-1,-1],"loss_changes":[1.9379898E1,1.8921089E-1,4.00519E0,0E0,0E0,1.2591212E0,1.2553501E-1,0E0,1.0459064E0,5.6038857E-2,0E0,0E0,0E0,0E0,0E0],"parents":[2147483647,0,0,1,1,2,2,5,5,6,6,8,8,9,9],"right_children":[2,4,6,-1,-1,8,10,-1,12,14,-1,-1,-1,-1,-1],"split_conditions":[2E0,1.6493031E2,2.7E-1,-3.7689585E-2,-1.1998051E-2,1E0,1.9037904E2,-2.395652E-2,1.3483287E2,1.5545003E2,7.198275E-3,9.191775E-3,-6.364543E-3,1.7501296E-2,2.787369E-2],"split_indices":[5,0,3,0,0,4,0,0,0,0,0,0,0,0,0],"split_type":[0,0,0,0,0,0,0,0,0,0,0,0,0,0,0],"sum_hessian":[1.1547557E2,2.6309912E1,8.916566E1,2.3107262E1,3.2026489E0,4.5703556E1,4.34621E1,2.5345285E0,4.316903E1,3.986799E1,3.5941143E0,2.802498E1,1.514405E1,2.2300447E1,1.756754E1],"tree_param":{"num_deleted":"0","num_feature":"6","num_nodes":"15","size_leaf_vector":"1"}},{"base_weights":[2.4597573E-3,-6.9900584E-1,1.9882452E-1,-3.6969036E-2,-1.166709E-2,3.3882834E-2,5.362592E-1,-2.2681972E-2,9.814413E-2,5.831003E-3,5.6918293E-1,7.3671415E-3,-9.069198E-3,2.9760689E-2,8.639788E-3],"categories":[],"categories_nodes":[],"categories_segments":[],"categories_sizes":[],"default_left":[0,0,0,0,0,0,0,0,0,0,0,0,0,0,0],"id":10,"left_children":[1,3,5,-1,-1,7,9,-1,11,-1,13,-1,-1,-1,-1],"loss_changes":[1.6571817E1,1.4968395E-1,5.194148E0,0E0,0E0,2.1334734E0,2.9167366E-1,0E0,8.689903E-1,0E0,8.290005E-2,0E0,0E0,0E0,0E0],"parents":[2147483647,0,0,1,1,2,2,5,5,6,6,8,8,10,10],"right_children":[2,4,6,-1,-1,8,10,-1,12,-1,14,-1,-1,-1,-1],"split_conditions":[2E0,3.030303E-1,9.385399E-1,-3.6969036E-2,-1.166709E-2,8.364984E-1,1.1923452E2,-2.2681972E-2,7E0,5.831003E-3,1.860589E2,7.3671415E-3,-9.069198E-3,2.9760689E-2,8.639788E-3],"split_indices":[5,3,1,0,0,1,0,0,5,0,0,0,0,0,0],"split_type":[0,0,0,0,0,0,0,0,0,0,0,0,0,0,0],"sum_hessian":[1.162916E2,2.4314493E1,9.197711E1,2.1292736E1,3.021758E0,6.325716E1,2.8719952E1,5.9556518E0,5.730151E1,2.7502398E0,2.5969713E1,4.952974E1,7.7717714E0,2.3427996E1,2.5417163E0],"tree_param":{"num_deleted":"0","num_feature":"6","num_nodes":"15","size_leaf_vector":"1"}},{"base_weights":[-6.293157E-3,-6.772021E-1,1.779286E-1,-3.6022305E-2,-1.0498201E-2,-7.7751845E-2,3.172195E-1,-2.4081009E-2,-1.3060555E-2,3.584811E-1,1.03186384E-1,6.536364E-3,-1.1596731E-2,1.380792E-2,2.7705217E-2,-3.388631E-3,9.448618E-3],"categories":[],"categories_nodes":[],"categories_segments":[],"categories_sizes":[],"default_left":[0,0,0,0,0,0,0,0,0,0,0,0,0,0,0,0,0],"id":11,"left_children":[1,3,5,-1,-1,7,9,-1,11,13,15,-1,-1,-1,-1,-1,-1],"loss_changes":[1.4645769E1,2.131834E-1,3.3622541E0,0E0,0E0,8.864921E-1,4.6129894E-1,0E0,1.0588078E0,4.9927902E-1,2.1047157E-1,0E0,0E0,0E0,0E0,0E0,0E0],"parents":[2147483647,0,0,1,1,2,2,5,5,6,6,8,8,9,9,10,10],"right_children":[2,4,6,-1,-1,8,10,-1,12,14,16,-1,-1,-1,-1,-1,-1],"split_conditions":[2E0,3.030303E-1,2.5E1,-3.6022305E-2,-1.0498201E-2,1E0,1.7270796E2,-2.4081009E-2,1.2826642E2,2.9E1,1.8135014E2,6.536364E-3,-1.1596731E-2,1.380792E-2,2.7705217E-2,-3.388631E-3,9.448618E-3],"split_indices":[5,3,2,0,0,4,0,0,0,2,0,0,0,0,0,0,0],"split_type":[0,0,0,0,0,0,0,0,0,0,0,0,0,0,0,0,0],"sum_hessian":[1.1454729E2,2.3524054E1,9.102323E1,2.0539248E1,2.984807E0,3.2411938E1,5.8611298E1,2.6953077E0,2.971663E1,4.800672E1,1.0604575E1,1.842072E1,1.1295911E1,3.7182747E1,1.0823976E1,3.6836185E0,6.920957E0],"tree_param":{"num_deleted":"0","num_feature":"6","num_nodes":"17","size_leaf_vector":"1"}},{"base_weights":[-1.628442E-2,-6.700674E-1,1.7002034E-1,-3.5304446E-2,-1.2944022E-2,-2.0972127E-2,3.6607978E-1,-2.1889126E-2,3.4075573E-2,3.9207587E-1,1.0123242E-3,5.7587894E-3,-1.0447698E-2,2.9186636E-2,1.316458E-2],"categories":[],"categories_nodes":[],"categories_segments":[],"categories_sizes":[],"default_left":[0,0,0,0,0,0,0,0,0,0,0,0,0,0,0],"id":12,"left_children":[1,3,5,-1,-1,7,9,-1,11,13,-1,-1,-1,-1,-1],"loss_changes":[1.3702024E1,3.7765503E-3,3.2988114E0,0E0,0E0,1.0923537E0,3.7409782E-1,0E0,8.909503E-1,6.857252E-1,0E0,0E0,0E0,0E0,0E0],"parents":[2147483647,0,0,1,1,2,2,5,5,6,6,8,8,9,9],"right_children":[2,4,6,-1,-1,8,10,-1,12,14,-1,-1,-1,-1,-1],"split_conditions":[2E0,3.030303E-1,2.7102804E-1,-3.5304446E-2,-1.2944022E-2,1.1365934E2,1.9037904E2,-2.1889126E-2,6E0,3E0,1.0123242E-3,5.7587894E-3,-1.0447698E-2,2.9186636E-2,1.316458E-2],"split_indices":[5,3,3,0,0,0,0,0,5,5,0,0,0,0,0],"split_type":[0,0,0,0,0,0,0,0,0,0,0,0,0,0,0],"sum_hessian":[1.0862278E2,2.2937384E1,8.56854E1,1.977098E1,3.166403E0,4.4308285E1,4.1377113E1,3.5468287E0,4.076146E1,3.8235542E1,3.141569E0,3.1351475E1,9.409984E0,1.252723E1,2.5708313E1],"tree_param":{"num_deleted":"0","num_feature":"6","num_nodes":"15","size_leaf_vector":"1"}},{"base_weights":[1.1043083E-2,-6.5805733E-1,1.9096741E-1,-3.462941E-2,-1.148782E-2,-7.516538E-2,3.2535598E-1,-1.8591022E-2,1.5048372E-2,4.8484203E-1,2.0853187E-1,1.0002848E-2,-1.2981641E-2,2.8690806E-2,-4.209195E-3,7.936978E-3,2.1544006E-2],"categories":[],"categories_nodes":[],"categories_segments":[],"categories_sizes":[],"default_left":[0,0,0,0,0,0,0,0,0,0,0,0,0,0,0,0,0],"id":13,"left_children":[1,3,5,-1,-1,7,9,-1,11,13,15,-1,-1,-1,-1,-1,-1],"loss_changes":[1.3829384E1,4.1894913E-2,3.2833328E0,0E0,0E0,8.6674726E-1,9.2438555E-1,0E0,1.4473222E0,1.3145204E0,2.8845584E-1,0E0,0E0,0E0,0E0,0E0,0E0],"parents":[2147483647,0,0,1,1,2,2,5,5,6,6,8,8,9,9,10,10],"right_children":[2,4,6,-1,-1,8,10,-1,12,14,16,-1,-1,-1,-1,-1,-1],"split_conditions":[2E0,3.030303E-1,2.5E1,-3.462941E-2,-1.148782E-2,1.1537206E2,3E0,-1.8591022E-2,1.2826642E2,1.8088258E2,3.2258064E-1,1.0002848E-2,-1.2981641E-2,2.8690806E-2,-4.209195E-3,7.936978E-3,2.1544006E-2],"split_indices":[5,3,2,0,0,0,5,0,0,0,3,0,0,0,0,0,0],"split_type":[0,0,0,0,0,0,0,0,0,0,0,0,0,0,0,0,0],"sum_hessian":[1.10786255E2,2.2351383E1,8.8434875E1,1.9541752E1,2.8096297E0,2.9968645E1,5.846623E1,5.5325484E0,2.4436096E1,2.2055758E1,3.641047E1,1.492612E1,9.509976E0,1.9058842E1,2.9969168E0,3.254928E1,3.86119E0],"tree_param":{"num_deleted":"0","num_feature":"6","num_nodes":"17","size_leaf_vector":"1"}},{"base_weights":[-4.015749E-3,-2.1573697E-1,2.81279E-1,-2.7615169E-2,-1.2366592E-1,-1.0437435E-2,3.1778687E-1,-1.900562E-1,1.4038308E-1,1.5650322E-1,3.8343993E-1,-2.7445457E-3,-1.536385E-2,1.1730019E-2,-7.657592E-3,2.1538498E-2,1.5301539E-3,5.5290264E-4,2.299488E-2],"categories":[],"categories_nodes":[],"categories_segments":[],"categories_sizes":[],"default_left":[0,0,0,0,0,0,0,0,0,0,0,0,0,0,0,0,0,0,0],"id":14,"left_children":[1,3,5,-1,7,-1,9,11,13,15,17,-1,-1,-1,-1,-1,-1,-1,-1],"loss_changes":[6.697567E0,1.8350468E0,9.779005E-1,0E0,9.743381E-1,0E0,3.539667E-1,6.448834E-1,3.9559186E-1,5.3748786E-1,8.5632277E-1,0E0,0E0,0E0,0E0,0E0,0E0,0E0,0E0],"parents":[2147483647,0,0,1,1,2,2,4,4,6,6,7,7,8,8,9,9,10,10],"right_children":[2,4,6,-1,8,-1,10,12,14,16,18,-1,-1,-1,-1,-1,-1,-1,-1],"split_conditions":[9.2200404E-1,8.364984E-1,2.2330096E-1,-2.7615169E-2,2.9347825E-1,-1.0437435E-2,9.43009E-1,1.2557866E2,1.7953282E2,1.24632996E2,2.5E1,-2.7445457E-3,-1.536385E-2,1.1730019E-2,-7.657592E-3,2.1538498E-2,1.5301539E-3,5.5290264E-4,2.299488E-2],"split_indices":[1,1,3,0,3,0,1,0,0,0,2,0,0,0,0,0,0,0,0],"split_type":[0,0,0,0,0,0,0,0,0,0,0,0,0,0,0,0,0,0,0],"sum_hessian":[1.068722E2,6.162617E1,4.5246025E1,1.1089843E1,5.0536327E1,2.4829366E0,4.276309E1,4.0830658E1,9.705672E0,1.4329283E1,2.8433805E1,2.0327688E1,2.050297E1,7.651336E0,2.0543356E0,2.9845526E0,1.134473E1,5.233526E0,2.320028E1],"tree_param":{"num_deleted":"0","num_feature":"6","num_nodes":"19","size_leaf_vector":"1"}},{"base_weights":[-7.7272416E-3,-6.390855E-1,1.6810237E-1,-3.3776343E-2,-1.1918151E-2,-1.6703006E-2,3.5365924E-1,-2.229513E-2,2.824911E-2,2.804328E-2,1.8460537E-1,7.194633E-3,-6.1846976E-3,5.6057633E-3,1.9672934E-2],"categories":[],"categories_nodes":[],"categories_segments":[],"categories_sizes":[],"default_left":[0,0,0,0,0,0,0,0,0,0,0,0,0,0,0],"id":15,"left_children":[1,3,5,-1,-1,7,9,-1,11,-1,13,-1,-1,-1,-1],"loss_changes":[1.2437969E1,3.4285545E-2,3.019408E0,0E0,0E0,9.0982753E-1,1.3290868E0,0E0,7.979337E-1,0E0,3.2254255E-1,0E0,0E0,0E0,0E0],"parents":[2147483647,0,0,1,1,2,2,5,5,6,6,8,8,10,10],"right_children":[2,4,6,-1,-1,8,10,-1,12,-1,14,-1,-1,-1,-1],"split_conditions":[2E0,3.030303E-1,2.7102804E-1,-3.3776343E-2,-1.1918151E-2,1E0,3E0,-2.229513E-2,1.2826642E2,2.804328E-2,3.2258064E-1,7.194633E-3,-6.1846976E-3,5.6057633E-3,1.9672934E-2],"split_indices":[5,3,3,0,0,4,5,0,0,0,3,0,0,0,0],"split_type":[0,0,0,0,0,0,0,0,0,0,0,0,0,0,0],"sum_hessian":[1.081067E2,2.2401041E1,8.570565E1,1.9276503E1,3.124537E0,4.385161E1,4.1854046E1,2.4661336E0,4.1385475E1,1.6722376E1,2.513167E1,2.3559984E1,1.782549E1,2.0938004E1,4.1936665E0],"tree_param":{"num_deleted":"0","num_feature":"6","num_nodes":"15","size_leaf_vector":"1"}},{"base_weights":[-4.833174E-3,-1.5598625E-1,3.6243916E-1,-2.690236E-2,-7.1543254E-2,2.5748922E-2,4.3720093E-1,-1.4288916E-1,1.6554098E-1,8.260681E-3,-9.35661E-3,4.9283478E-1,-5.184677E-3,-4.0405184E-6,-1.3489311E-2,1.8535253E-2,-7.6052803E-3,8.99117E-3,2.706792E-2],"categories":[],"categories_nodes":[],"categories_segments":[],"categories_sizes":[],"default_left":[0,0,0,0,0,0,0,0,0,0,0,0,0,0,0,0,0,0,0],"id":16,"left_children":[1,3,5,-1,7,9,11,13,15,-1,-1,17,-1,-1,-1,-1,-1,-1,-1],"loss_changes":[5.9202204E0,2.3589935E0,7.60345E-1,0E0,1.132314E0,2.9270667E-1,8.6427927E-1,9.1294396E-1,1.1401374E0,0E0,0E0,1.5935278E-1,0E0,0E0,0E0,0E0,0E0,0E0,0E0],"parents":[2147483647,0,0,1,1,2,2,4,4,5,5,6,6,7,7,8,8,11,11],"right_children":[2,4,6,-1,8,10,12,14,16,-1,-1,18,-1,-1,-1,-1,-1,-1,-1],"split_conditions":[9.385399E-1,8.364984E-1,2.5E1,-2.690236E-2,2.9347825E-1,1.2794308E2,1.9037904E2,1.2520563E2,3.1683168E-1,8.260681E-3,-9.35661E-3,2.7102804E-1,-5.184677E-3,-4.0405184E-6,-1.3489311E-2,1.8535253E-2,-7.6052803E-3,8.99117E-3,2.706792E-2],"split_indices":[1,1,2,0,3,0,0,0,3,0,0,3,0,0,0,0,0,0,0],"split_type":[0,0,0,0,0,0,0,0,0,0,0,0,0,0,0,0,0,0,0],"sum_hessian":[1.0260629E2,7.3505325E1,2.9100975E1,1.1360677E1,6.2144646E1,5.776279E0,2.3324696E1,4.838018E1,1.3764463E1,3.7604978E0,2.0157812E0,2.1310501E1,2.0141938E0,2.37046E1,2.4675581E1,8.159967E0,5.6044965E0,4.1234093E0,1.7187092E1],"tree_param":{"num_deleted":"0","num_feature":"6","num_nodes":"19","size_leaf_vector":"1"}},{"base_weights":[2.5599613E-3,-1.7833224E-1,2.4760611E-1,-3.1277275E-1,7.835233E-2,-1.1742386E-2,2.8458118E-1,-2.6972724E-2,-2.0572543E-1,1.6720252E-2,1.7370624E-2,3.113825E-1,-3.4816258E-3,1.0285947E-3,-1.2149678E-2,-1.0222546E-2,7.1925432E-3,7.637368E-3,2.076721E-2],"categories":[],"categories_nodes":[],"categories_segments":[],"categories_sizes":[],"default_left":[0,0,0,0,0,0,0,0,0,0,0,0,0,0,0,0,0,0,0],"id":17,"left_children":[1,3,5,7,9,-1,11,-1,13,-1,15,17,-1,-1,-1,-1,-1,-1,-1],"loss_changes":[4.725494E0,2.1660435E0,9.411495E-1,7.647157E-1,3.4261668E-1,0E0,4.5108414E-1,0E0,2.7019036E-1,0E0,6.32064E-1,5.376122E-1,0E0,0E0,0E0,0E0,0E0,0E0,0E0],"parents":[2147483647,0,0,1,1,2,2,3,3,4,4,6,6,8,8,10,10,11,11],"right_children":[2,4,6,8,10,-1,12,-1,14,-1,16,18,-1,-1,-1,-1,-1,-1,-1],"split_conditions":[9.2200404E-1,2.736842E-1,2.2330096E-1,8.391383E-1,1.2141104E2,-1.1742386E-2,1.9037904E2,-2.6972724E-2,2.038835E-1,1.6720252E-2,2.9032257E-1,2.7102804E-1,-3.4816258E-3,1.0285947E-3,-1.2149678E-2,-1.0222546E-2,7.1925432E-3,7.637368E-3,2.076721E-2],"split_indices":[1,3,3,1,0,0,0,0,3,0,3,3,0,0,0,0,0,0,0],"split_type":[0,0,0,0,0,0,0,0,0,0,0,0,0,0,0,0,0,0,0],"sum_hessian":[1.02613174E2,5.9347534E1,4.3265636E1,3.866134E1,2.0686193E1,2.3179398E0,4.0947697E1,9.80969E0,2.885165E1,2.2541175E0,1.8432076E1,3.8292187E1,2.6555119E0,4.2063146E0,2.4645336E1,6.245596E0,1.218648E1,1.7114975E1,2.1177212E1],"tree_param":{"num_deleted":"0","num_feature":"6","num_nodes":"19","size_leaf_vector":"1"}},{"base_weights":[-1.1462329E-2,-3.1133125E-2,1.6664326E-1,-3.0042501E-2,3.7091818E-1,-2.3129134E-1,6.6476256E-2,5.2254725E-1,2.2304219E-1,-1.4062754E-2,1.8115065E-3,1.21033E-2,-7.764025E-3,2.911207E-2,1.7398775E-3,6.3007395E-3,2.185577E-2],"categories":[],"categories_nodes":[],"categories_segments":[],"categories_sizes":[],"default_left":[0,0,0,0,0,0,0,0,0,0,0,0,0,0,0,0,0],"id":18,"left_children":[1,-1,3,5,7,9,11,13,15,-1,-1,-1,-1,-1,-1,-1,-1],"loss_changes":[1.1575058E1,0E0,3.3345401E0,8.825078E-1,6.770086E-1,2.163325E-1,1.2896583E0,4.996066E-1,3.8913572E-1,0E0,0E0,0E0,0E0,0E0,0E0,0E0,0E0],"parents":[2147483647,0,0,2,2,3,3,4,4,5,5,6,6,7,7,8,8],"right_children":[2,-1,4,6,8,10,12,14,16,-1,-1,-1,-1,-1,-1,-1,-1],"split_conditions":[2E0,-3.1133125E-2,2.7102804E-1,2.254902E-1,3E0,1.4166385E2,1.2826642E2,3.17757E-1,3.2222223E-1,-1.4062754E-2,1.8115065E-3,1.21033E-2,-7.764025E-3,2.911207E-2,1.7398775E-3,6.3007395E-3,2.185577E-2],"split_indices":[5,0,3,3,5,0,0,3,3,0,0,0,0,0,0,0,0],"split_type":[0,0,0,0,0,0,0,0,0,0,0,0,0,0,0,0,0],"sum_hessian":[1.0242517E2,2.1985626E1,8.0439545E1,4.1850105E1,3.858944E1,1.2660126E1,2.9189981E1,1.6551003E1,2.2038437E1,1.0581243E1,2.0788825E0,1.6188534E1,1.3001448E1,1.4401044E1,2.1499586E0,1.7351347E1,4.68709E0],"tree_param":{"num_deleted":"0","num_feature":"6","num_nodes":"17","size_leaf_vector":"1"}},{"base_weights":[-2.374357E-3,-6.06105E-1,1.6488114E-1,-3.2056887E-2,-1.0863211E-2,1.5308115E-2,4.4875333E-1,-2.0550435E-2,8.592259E-2,1.1217516E-1,2.6255175E-2,1.4302763E-2,-2.4430973E-3,1.5050987E-2,-1.0723366E-2],"categories":[],"categories_nodes":[],"categories_segments":[],"categories_sizes":[],"default_left":[0,0,0,0,0,0,0,0,0,0,0,0,0,0,0],"id":19,"left_children":[1,3,5,-1,-1,7,9,-1,11,13,-1,-1,-1,-1,-1],"loss_changes":[1.0615354E1,3.204727E-2,3.4825015E0,0E0,0E0,1.756419E0,6.105752E-1,0E0,1.3684747E0,6.0927916E-1,0E0,0E0,0E0,0E0,0E0],"parents":[2147483647,0,0,1,1,2,2,5,5,6,6,8,8,9,9],"right_children":[2,4,6,-1,-1,8,10,-1,12,14,-1,-1,-1,-1,-1],"split_conditions":[2E0,3.030303E-1,9.385399E-1,-3.2056887E-2,-1.0863211E-2,8.391383E-1,2.5E1,-2.0550435E-2,3E0,1.27643364E2,2.6255175E-2,1.4302763E-2,-2.4430973E-3,1.5050987E-2,-1.0723366E-2],"split_indices":[5,3,1,0,0,1,2,0,5,0,0,0,0,0,0],"split_type":[0,0,0,0,0,0,0,0,0,0,0,0,0,0,0],"sum_hessian":[1.01146805E2,2.0804083E1,8.034273E1,1.7894213E1,2.9098713E0,5.399858E1,2.6344145E1,6.3032713E0,4.769531E1,5.78413E0,2.0560015E1,1.8291233E1,2.9404076E1,3.7645721E0,2.0195582E0],"tree_param":{"num_deleted":"0","num_feature":"6","num_nodes":"15","size_leaf_vector":"1"}},{"base_weights":[-8.7683005E-3,-1.4865997E-1,3.3008674E-1,-2.5426103E-2,-7.299378E-2,1.8812725E-1,4.6677768E-1,-1.4057201E-1,1.3386379E-1,2.2374191E-3,2.8442606E-1,9.634352E-3,2.6266921E-2,-1.4546087E-3,-1.2196002E-2,1.47620095E-2,-1.0239335E-2,1.127899E-2,-1.0231034E-2,1.7718412E-2,-9.1057335E-4],"categories":[],"categories_nodes":[],"categories_segments":[],"categories_sizes":[],"default_left":[0,0,0,0,0,0,0,0,0,0,0,0,0,0,0,0,0,0,0,0,0],"id":20,"left_children":[1,3,5,-1,7,9,11,13,15,17,19,-1,-1,-1,-1,-1,-1,-1,-1,-1,-1],"loss_changes":[4.9572678E0,1.9389079E0,4.176464E-1,0E0,9.242344E-1,3.271777E-1,2.588439E-2,5.478275E-1,1.0304153E0,4.747295E-1,2.684133E-1,0E0,0E0,0E0,0E0,0E0,0E0,0E0,0E0,0E0,0E0],"parents":[2147483647,0,0,1,1,2,2,4,4,5,5,6,6,7,7,8,8,9,9,10,10],"right_children":[2,4,6,-1,8,10,12,14,16,18,20,-1,-1,-1,-1,-1,-1,-1,-1,-1,-1],"split_conditions":[9.385399E-1,8.364984E-1,9.661291E-1,-2.5426103E-2,2.8E1,2.7102804E-1,1.3281525E2,1.2581165E2,3.1683168E-1,9.478385E-1,3.1E1,9.634352E-3,2.6266921E-2,-1.4546087E-3,-1.2196002E-2,1.47620095E-2,-1.0239335E-2,1.127899E-2,-1.0231034E-2,1.7718412E-2,-9.1057335E-4],"split_indices":[1,1,1,0,2,3,0,0,3,1,2,0,0,0,0,0,0,0,0,0,0],"split_type":[0,0,0,0,0,0,0,0,0,0,0,0,0,0,0,0,0,0,0,0,0],"sum_hessian":[1.0050673E2,7.1932816E1,2.8573908E1,1.050947E1,6.1423347E1,1.6348192E1,1.2225716E1,4.6781273E1,1.4642077E1,6.277304E0,1.0070888E1,3.6628213E0,8.562894E0,2.3738226E1,2.3043047E1,1.0090192E1,4.5518856E0,2.9313493E0,3.345955E0,7.9026504E0,2.168237E0],"tree_param":{"num_deleted":"0","num_feature":"6","num_nodes":"21","size_leaf_vector":"1"}},{"base_weights":[-7.0576067E-3,-3.0236483E-2,1.6299967E-1,-2.1671943E-1,2.4399015E-1,-2.7496544E-1,3.6203281E-3,4.5038038E-1,1.04632646E-1,-3.739054E-3,-1.8374586E-2,2.3607194E-2,4.7374093E-3,3.17171E-3,1.808433E-2],"categories":[],"categories_nodes":[],"categories_segments":[],"categories_sizes":[],"default_left":[0,0,0,0,0,0,0,0,0,0,0,0,0,0,0],"id":21,"left_children":[1,-1,3,5,7,9,-1,11,13,-1,-1,-1,-1,-1,-1],"loss_changes":[1.0458621E1,0E0,2.5713503E0,2.9500383E-1,1.833364E0,1.8636787E-1,0E0,1.14920616E-1,4.0538108E-1,0E0,0E0,0E0,0E0,0E0,0E0],"parents":[2147483647,0,0,2,2,3,3,4,4,5,5,7,7,8,8],"right_children":[2,-1,4,6,8,10,-1,12,14,-1,-1,-1,-1,-1,-1],"split_conditions":[2E0,-3.0236483E-2,2.2826087E-1,1.4166385E2,3E0,2E1,3.6203281E-3,3.1683168E-1,3.2258064E-1,-3.739054E-3,-1.8374586E-2,2.3607194E-2,4.7374093E-3,3.17171E-3,1.808433E-2],"split_indices":[5,0,3,0,5,2,0,3,3,0,0,0,0,0,0],"split_type":[0,0,0,0,0,0,0,0,0,0,0,0,0,0,0],"sum_hessian":[9.896057E1,2.0788084E1,7.817249E1,1.3153123E1,6.501937E1,1.1029187E1,2.1239352E0,2.4407654E1,4.0611713E1,4.6295023E0,6.3996854E0,2.2382673E1,2.0249808E0,3.715101E1,3.460704E0],"tree_param":{"num_deleted":"0","num_feature":"6","num_nodes":"15","size_leaf_vector":"1"}},{"base_weights":[-1.5241008E-2,-2.9687485E-2,1.48552E-1,8.653738E-3,4.301028E-1,-2.1889463E-2,8.34326E-2,4.6504354E-1,6.823893E-4,1.3864659E-2,-3.047514E-3,5.9266104E-3,2.4482574E-2],"categories":[],"categories_nodes":[],"categories_segments":[],"categories_sizes":[],"default_left":[0,0,0,0,0,0,0,0,0,0,0,0,0],"id":22,"left_children":[1,-1,3,5,7,-1,9,11,-1,-1,-1,-1,-1],"loss_changes":[9.661334E0,0E0,3.1283183E0,1.9167324E0,3.712492E-1,0E0,1.404826E0,9.097767E-2,0E0,0E0,0E0,0E0,0E0],"parents":[2147483647,0,0,2,2,3,3,4,4,6,6,7,7],"right_children":[2,-1,4,6,8,-1,10,12,-1,-1,-1,-1,-1],"split_conditions":[2E0,-2.9687485E-2,9.385399E-1,8.391383E-1,1.8957764E2,-2.1889463E-2,3E0,1.1923452E2,6.823893E-4,1.3864659E-2,-3.047514E-3,5.9266104E-3,2.4482574E-2],"split_indices":[5,0,1,1,0,0,5,0,0,0,0,0,0],"split_type":[0,0,0,0,0,0,0,0,0,0,0,0,0],"sum_hessian":[9.809878E1,2.0487602E1,7.7611176E1,5.3225643E1,2.4385534E1,6.243277E0,4.698237E1,2.2282665E1,2.1028688E0,1.9269047E1,2.771332E1,2.2488997E0,2.0033766E1],"tree_param":{"num_deleted":"0","num_feature":"6","num_nodes":"13","size_leaf_vector":"1"}},{"base_weights":[6.743135E-4,-5.6531245E-1,1.4896746E-1,-3.0191725E-2,-1.0283682E-2,-1.6261078E-3,4.40631E-1,2.1170144E-1,-1.4708494E-1,2.3787992E-2,9.404668E-5,-1.1413949E-2,1.3874282E-2,-9.445823E-3,5.257975E-3],"categories":[],"categories_nodes":[],"categories_segments":[],"categories_sizes":[],"default_left":[0,0,0,0,0,0,0,0,0,0,0,0,0,0,0],"id":23,"left_children":[1,3,5,-1,-1,7,9,11,13,-1,-1,-1,-1,-1,-1],"loss_changes":[8.476759E0,4.211092E-2,3.5161452E0,0E0,0E0,1.7616626E0,4.1828966E-1,7.93054E-1,3.9577526E-1,0E0,0E0,0E0,0E0,0E0,0E0],"parents":[2147483647,0,0,1,1,2,2,5,5,6,6,7,7,8,8],"right_children":[2,4,6,-1,-1,8,10,12,14,-1,-1,-1,-1,-1,-1],"split_conditions":[2E0,1.5913872E2,9.385399E-1,-3.0191725E-2,-1.0283682E-2,3E0,1.8957764E2,8.391383E-1,2.9E1,2.3787992E-2,9.404668E-5,-1.1413949E-2,1.3874282E-2,-9.445823E-3,5.257975E-3],"split_indices":[5,0,1,0,0,5,0,1,2,0,0,0,0,0,0],"split_type":[0,0,0,0,0,0,0,0,0,0,0,0,0,0,0],"sum_hessian":[9.69889E1,1.8968407E1,7.802049E1,1.5906594E1,3.061812E0,5.2765255E1,2.5255243E1,2.102278E1,3.1742474E1,2.3226862E1,2.0283806E0,2.0918374E0,1.8930943E1,2.7657885E1,4.084589E0],"tree_param":{"num_deleted":"0","num_feature":"6","num_nodes":"15","size_leaf_vector":"1"}},{"base_weights":[7.734588E-3,-2.8790815E-2,1.667223E-1,2.8684683E-2,4.1644028E-1,2.4350391E-1,-1.2015337E-1,4.4703603E-1,1.0157902E-3,-1.0450499E-2,1.5658699E-2,-8.560946E-3,8.160666E-3,2.510646E-2,8.932011E-3],"categories":[],"categories_nodes":[],"categories_segments":[],"categories_sizes":[],"default_left":[0,0,0,0,0,0,0,0,0,0,0,0,0,0,0],"id":24,"left_children":[1,-1,3,5,7,9,11,13,-1,-1,-1,-1,-1,-1,-1],"loss_changes":[9.240087E0,0E0,2.671501E0,1.737295E0,3.1741333E-1,8.292414E-1,5.240805E-1,1.9925928E-1,0E0,0E0,0E0,0E0,0E0,0E0,0E0],"parents":[2147483647,0,0,2,2,3,3,4,4,5,5,6,6,7,7],"right_children":[2,-1,4,6,8,10,12,14,-1,-1,-1,-1,-1,-1,-1],"split_conditions":[2E0,-2.8790815E-2,9.385399E-1,3E0,1.8957764E2,8.391383E-1,2.9E1,6E0,1.0157902E-3,-1.0450499E-2,1.5658699E-2,-8.560946E-3,8.160666E-3,2.510646E-2,8.932011E-3],"split_indices":[5,0,1,5,0,1,2,5,0,0,0,0,0,0,0],"split_type":[0,0,0,0,0,0,0,0,0,0,0,0,0,0,0],"sum_hessian":[9.5524635E1,1.9330425E1,7.6194214E1,5.0505703E1,2.5688507E1,2.0150398E1,3.0355307E1,2.3608028E1,2.0804787E0,2.1547961E0,1.7995602E1,2.6390932E1,3.9643745E0,1.8142284E1,5.4657445E0],"tree_param":{"num_deleted":"0","num_feature":"6","num_nodes":"15","size_leaf_vector":"1"}},{"base_weights":[5.6961835E-3,-5.530323E-1,1.5292092E-1,-2.9573008E-2,-8.521224E-3,-2.7089983E-2,3.623391E-1,-1.2528756E-1,3.1899926E-1,3.9595425E-1,-4.0870653E-3,-2.0271434E-2,-2.4336905E-3,2.0830674E-2,1.7898489E-3,2.9094702E-2,1.2116345E-2],"categories":[],"categories_nodes":[],"categories_segments":[],"categories_sizes":[],"default_left":[0,0,0,0,0,0,0,0,0,0,0,0,0,0,0,0,0],"id":25,"left_children":[1,3,5,-1,-1,7,9,11,13,15,-1,-1,-1,-1,-1,-1,-1],"loss_changes":[8.089731E0,1.0001469E-1,2.9515524E0,0E0,0E0,1.5645677E0,6.034765E-1,7.217162E-1,2.526822E-1,6.8614006E-1,0E0,0E0,0E0,0E0,0E0,0E0,0E0],"parents":[2147483647,0,0,1,1,2,2,5,5,6,6,7,7,8,8,9,9],"right_children":[2,4,6,-1,-1,8,10,12,14,16,-1,-1,-1,-1,-1,-1,-1],"split_conditions":[2E0,3.030303E-1,9.2261994E-1,-2.9573008E-2,-8.521224E-3,2.9347825E-1,1.9037904E2,8.364984E-1,3.181818E-1,3E0,-4.0870653E-3,-2.0271434E-2,-2.4336905E-3,2.0830674E-2,1.7898489E-3,2.9094702E-2,1.2116345E-2],"split_indices":[5,3,1,0,0,3,0,1,3,5,0,0,0,0,0,0,0],"split_type":[0,0,0,0,0,0,0,0,0,0,0,0,0,0,0,0,0],"sum_hessian":[9.428886E1,1.8514027E1,7.5774826E1,1.5832165E1,2.6818614E0,4.1684826E1,3.409E1,3.3465485E1,8.219343E0,3.1892601E1,2.1973999E0,5.3434076E0,2.8122076E1,5.4118304E0,2.807513E0,1.1906461E1,1.9986141E1],"tree_param":{"num_deleted":"0","num_feature":"6","num_nodes":"17","size_leaf_vector":"1"}},{"base_weights":[1.6489954E-3,-5.4363185E-1,1.4144605E-1,-2.8533584E-2,-7.8672515E-3,1.4392987E-2,3.7546557E-1,1.9247574E-1,-1.2253133E-1,4.0438756E-1,3.4238462E-4,1.8372676E-4,1.755539E-2,-1.8064385E-2,-3.3693125E-3,6.971543E-3,2.323296E-2],"categories":[],"categories_nodes":[],"categories_segments":[],"categories_sizes":[],"default_left":[0,0,0,0,0,0,0,0,0,0,0,0,0,0,0,0,0],"id":26,"left_children":[1,3,5,-1,-1,7,9,11,13,15,-1,-1,-1,-1,-1,-1,-1],"loss_changes":[7.4540906E0,2.8852463E-2,2.302798E0,0E0,0E0,1.327617E0,2.8552008E-1,7.043409E-1,3.5825962E-1,2.7413368E-1,0E0,0E0,0E0,0E0,0E0,0E0,0E0],"parents":[2147483647,0,0,1,1,2,2,5,5,6,6,7,7,8,8,9,9],"right_children":[2,4,6,-1,-1,8,10,12,14,16,-1,-1,-1,-1,-1,-1,-1],"split_conditions":[2E0,1.6493031E2,9.385399E-1,-2.8533584E-2,-7.8672515E-3,3E0,1.8957764E2,2.6E1,8.364984E-1,2.5E1,3.4238462E-4,1.8372676E-4,1.755539E-2,-1.8064385E-2,-3.3693125E-3,6.971543E-3,2.323296E-2],"split_indices":[5,0,1,0,0,5,0,2,1,2,0,0,0,0,0,0,0],"split_type":[0,0,0,0,0,0,0,0,0,0,0,0,0,0,0,0,0],"sum_hessian":[9.3768456E1,1.7955452E1,7.5812996E1,1.588861E1,2.0668433E0,5.0512135E1,2.5300865E1,2.1603441E1,2.8908691E1,2.3280212E1,2.020654E0,1.0798079E1,1.0805363E1,3.340871E0,2.5567822E1,5.542387E0,1.7737825E1],"tree_param":{"num_deleted":"0","num_feature":"6","num_nodes":"17","size_leaf_vector":"1"}},{"base_weights":[-1.5276445E-3,-5.3502446E-1,1.3925748E-1,-2.8925998E-2,-7.0907483E-3,2.122415E-3,4.0143055E-1,-1.7707178E-2,6.1573043E-2,9.77759E-2,4.694779E-1,1.1400702E-2,-3.423091E-3,1.3709115E-2,-5.823394E-3,2.5830055E-2,9.034875E-3],"categories":[],"categories_nodes":[],"categories_segments":[],"categories_sizes":[],"default_left":[0,0,0,0,0,0,0,0,0,0,0,0,0,0,0,0,0],"id":27,"left_children":[1,3,5,-1,-1,7,9,-1,11,13,15,-1,-1,-1,-1,-1,-1],"loss_changes":[7.2540784E0,1.8078136E-1,2.746307E0,0E0,0E0,1.1490973E0,4.503646E-1,0E0,1.036194E0,3.4088346E-1,9.784222E-2,0E0,0E0,0E0,0E0,0E0,0E0],"parents":[2147483647,0,0,1,1,2,2,5,5,6,6,8,8,9,9,10,10],"right_children":[2,4,6,-1,-1,8,10,-1,12,14,16,-1,-1,-1,-1,-1,-1],"split_conditions":[2E0,3.030303E-1,9.403174E-1,-2.8925998E-2,-7.0907483E-3,8.391383E-1,2.5E1,-1.7707178E-2,3E0,2.3232323E-1,6E0,1.1400702E-2,-3.423091E-3,1.3709115E-2,-5.823394E-3,2.5830055E-2,9.034875E-3],"split_indices":[5,3,1,0,0,1,2,0,5,3,5,0,0,0,0,0,0],"split_type":[0,0,0,0,0,0,0,0,0,0,0,0,0,0,0,0,0],"sum_hessian":[9.259747E1,1.8164314E1,7.443316E1,1.5506486E1,2.6578271E0,5.019422E1,2.423894E1,5.760396E0,4.4433826E1,5.329651E0,1.8909288E1,1.8827799E1,2.5606026E1,2.6160684E0,2.7135825E0,1.4900081E1,4.0092077E0],"tree_param":{"num_deleted":"0","num_feature":"6","num_nodes":"17","size_leaf_vector":"1"}},{"base_weights":[1.8100489E-3,-5.233232E-1,1.386748E-1,-2.851832E-2,-7.0354627E-3,-1.0205249E-1,2.6465204E-1,-2.979484E-1,5.9705462E-2,4.2635158E-1,1.2642543E-1,-1.6531974E-2,-5.7183853E-3,8.470661E-3,-8.772889E-3,2.4672259E-2,-2.1041061E-3,-1.1295788E-3,1.9064266E-2],"categories":[],"categories_nodes":[],"categories_segments":[],"categories_sizes":[],"default_left":[0,0,0,0,0,0,0,0,0,0,0,0,0,0,0,0,0,0,0],"id":28,"left_children":[1,3,5,-1,-1,7,9,11,13,15,17,-1,-1,-1,-1,-1,-1,-1,-1],"loss_changes":[6.799883E0,1.9158745E-1,2.3293738E0,0E0,0E0,8.9808494E-1,1.005521E0,2.554655E-4,4.8706236E-1,7.3652077E-1,1.1450919E0,0E0,0E0,0E0,0E0,0E0,0E0,0E0,0E0],"parents":[2147483647,0,0,1,1,2,2,5,5,6,6,7,7,8,8,9,9,10,10],"right_children":[2,4,6,-1,-1,8,10,12,14,16,18,-1,-1,-1,-1,-1,-1,-1,-1],"split_conditions":[2E0,3.030303E-1,2.5E1,-2.851832E-2,-7.0354627E-3,8.7443507E-1,3E0,1.434341E2,1.2826642E2,1.8088258E2,9.518986E-1,-1.6531974E-2,-5.7183853E-3,8.470661E-3,-8.772889E-3,2.4672259E-2,-2.1041061E-3,-1.1295788E-3,1.9064266E-2],"split_indices":[5,3,2,0,0,1,5,0,0,0,1,0,0,0,0,0,0,0,0],"split_type":[0,0,0,0,0,0,0,0,0,0,0,0,0,0,0,0,0,0,0],"sum_hessian":[9.0591255E1,1.7561735E1,7.302952E1,1.4764934E1,2.796801E0,2.521896E1,4.781056E1,1.0644333E1,1.4574628E1,2.0113089E1,2.769747E1,7.675417E0,2.9689155E0,1.031956E1,4.255068E0,1.749981E1,2.6132786E0,1.8628227E1,9.0692425E0],"tree_param":{"num_deleted":"0","num_feature":"6","num_nodes":"19","size_leaf_vector":"1"}},{"base_weights":[6.4924513E-3,-5.2067405E-1,1.4197041E-1,-2.8267581E-2,-8.464375E-3,9.612915E-3,3.8668692E-1,1.872733E-1,-1.23259164E-1,1.5939274E-1,2.3953438E-2,2.3700371E-4,1.8995794E-2,-1.791753E-2,-3.343482E-3,1.6396942E-2,-4.7390614E-4],"categories":[],"categories_nodes":[],"categories_segments":[],"categories_sizes":[],"default_left":[0,0,0,0,0,0,0,0,0,0,0,0,0,0,0,0,0],"id":29,"left_children":[1,3,5,-1,-1,7,9,11,13,15,-1,-1,-1,-1,-1,-1,-1],"loss_changes":[6.710928E0,1.1026716E-1,2.4114075E0,0E0,0E0,1.2386627E0,3.966272E-1,7.843833E-1,3.511987E-1,3.0671465E-1,0E0,0E0,0E0,0E0,0E0,0E0,0E0],"parents":[2147483647,0,0,1,1,2,2,5,5,6,6,7,7,8,8,9,9],"right_children":[2,4,6,-1,-1,8,10,12,14,16,-1,-1,-1,-1,-1,-1,-1],"split_conditions":[2E0,1.5913872E2,9.403174E-1,-2.8267581E-2,-8.464375E-3,3E0,2.6732674E-1,2.647059E-1,8.364984E-1,2.3232323E-1,2.3953438E-2,2.3700371E-4,1.8995794E-2,-1.791753E-2,-3.343482E-3,1.6396942E-2,-4.7390614E-4],"split_indices":[5,0,1,0,0,5,3,3,1,3,0,0,0,0,0,0,0],"split_type":[0,0,0,0,0,0,0,0,0,0,0,0,0,0,0,0,0],"sum_hessian":[8.9894966E1,1.7216463E1,7.2678505E1,1.4193922E1,3.0225406E0,4.851644E1,2.4162062E1,2.0409067E1,2.8107372E1,8.55768E0,1.56043825E1,1.1531716E1,8.877352E0,3.3657062E0,2.4741667E1,3.3401017E0,5.217578E0],"tree_param":{"num_deleted":"0","num_feature":"6","num_nodes":"17","size_leaf_vector":"1"}},{"base_weights":[8.431626E-3,-5.148855E-1,1.3566014E-1,-2.7621249E-2,-7.955605E-3,-1.1769594E-4,3.8181525E-1,-1.3500412E-1,1.6985564E-1,4.1701588E-1,1.02695885E-4,-1.9646652E-2,-2.3462784E-3,1.7679123E-2,-1.1295247E-3,2.3813013E-2,6.6377628E-3],"categories":[],"categories_nodes":[],"categories_segments":[],"categories_sizes":[],"default_left":[0,0,0,0,0,0,0,0,0,0,0,0,0,0,0,0,0],"id":30,"left_children":[1,3,5,-1,-1,7,9,11,13,15,-1,-1,-1,-1,-1,-1,-1],"loss_changes":[6.251336E0,6.953573E-2,2.5209272E0,0E0,0E0,1.2061967E0,3.5672998E-1,6.294776E-1,8.3903325E-1,2.8664255E-1,0E0,0E0,0E0,0E0,0E0,0E0,0E0],"parents":[2147483647,0,0,1,1,2,2,5,5,6,6,7,7,8,8,9,9],"right_children":[2,4,6,-1,-1,8,10,12,14,16,-1,-1,-1,-1,-1,-1,-1],"split_conditions":[2E0,3.030303E-1,9.385399E-1,-2.7621249E-2,-7.955605E-3,2.631579E-1,1.860589E2,8.412537E-1,3E0,6E0,1.02695885E-4,-1.9646652E-2,-2.3462784E-3,1.7679123E-2,-1.1295247E-3,2.3813013E-2,6.6377628E-3],"split_indices":[5,3,1,0,0,3,0,1,5,5,0,0,0,0,0,0,0],"split_type":[0,0,0,0,0,0,0,0,0,0,0,0,0,0,0,0,0],"sum_hessian":[8.979272E1,1.6369152E1,7.342356E1,1.3806832E1,2.5623198E0,4.8609737E1,2.4813826E1,2.7331575E1,2.1278162E1,2.2529348E1,2.284477E0,5.1953115E0,2.2136263E1,1.0028969E1,1.1249192E1,1.7525822E1,5.0035257E0],"tree_param":{"num_deleted":"0","num_feature":"6","num_nodes":"17","size_leaf_vector":"1"}},{"base_weights":[-1.0185072E-2,-5.094441E-1,1.1651516E-1,-2.7396623E-2,-8.660532E-3,-1.0231713E-1,2.3544604E-1,-3.1341973E-1,1.957682E-2,3.964039E-1,9.433972E-2,-1.893509E-2,-5.726611E-3,7.310692E-3,-1.00743575E-2,2.2395022E-2,-1.7677153E-3,-1.7548132E-3,1.6685836E-2],"categories":[],"categories_nodes":[],"categories_segments":[],"categories_sizes":[],"default_left":[0,0,0,0,0,0,0,0,0,0,0,0,0,0,0,0,0,0,0],"id":31,"left_children":[1,3,5,-1,-1,7,9,11,13,15,17,-1,-1,-1,-1,-1,-1,-1,-1],"loss_changes":[5.811344E0,5.072975E-2,1.9586227E0,0E0,0E0,7.1324444E-1,1.0191205E0,4.4249535E-2,5.9507567E-1,5.1803637E-1,8.999436E-1,0E0,0E0,0E0,0E0,0E0,0E0,0E0,0E0],"parents":[2147483647,0,0,1,1,2,2,5,5,6,6,7,7,8,8,9,9,10,10],"right_children":[2,4,6,-1,-1,8,10,12,14,16,18,-1,-1,-1,-1,-1,-1,-1,-1],"split_conditions":[2E0,1.5913872E2,2.5E1,-2.7396623E-2,-8.660532E-3,8.6081004E-1,3E0,8.423088E-1,1.2826642E2,1.8088258E2,9.518986E-1,-1.893509E-2,-5.726611E-3,7.310692E-3,-1.00743575E-2,2.2395022E-2,-1.7677153E-3,-1.7548132E-3,1.6685836E-2],"split_indices":[5,0,2,0,0,1,5,1,0,0,1,0,0,0,0,0,0,0,0],"split_type":[0,0,0,0,0,0,0,0,0,0,0,0,0,0,0,0,0,0,0],"sum_hessian":[8.799314E1,1.658776E1,7.140538E1,1.3754105E1,2.8336568E0,2.5241154E1,4.6164227E1,8.08925E0,1.7151903E1,1.9874811E1,2.6289417E1,4.7288647E0,3.3603857E0,1.133551E1,5.8163934E0,1.7690107E1,2.1847026E0,1.8170843E1,8.118573E0],"tree_param":{"num_deleted":"0","num_feature":"6","num_nodes":"19","size_leaf_vector":"1"}},{"base_weights":[-1.6509896E-2,-2.5814364E-2,1.08856134E-1,-2.0264445E-2,3.346139E-1,1.4771233E-1,-1.396444E-1,1.5644939E-1,4.1551995E-1,-9.124524E-3,1.1319912E-2,-9.055788E-3,5.621455E-3,1.5296727E-2,1.3283528E-4,4.97413E-3,2.233225E-2],"categories":[],"categories_nodes":[],"categories_segments":[],"categories_sizes":[],"default_left":[0,0,0,0,0,0,0,0,0,0,0,0,0,0,0,0,0],"id":32,"left_children":[1,-1,3,5,7,9,11,13,15,-1,-1,-1,-1,-1,-1,-1,-1],"loss_changes":[5.6816106E0,0E0,2.1331484E0,1.0066622E0,2.5298715E-1,6.275424E-1,3.456664E-1,2.6288435E-1,7.8995466E-2,0E0,0E0,0E0,0E0,0E0,0E0,0E0,0E0],"parents":[2147483647,0,0,2,2,3,3,4,4,5,5,6,6,7,7,8,8],"right_children":[2,-1,4,6,8,10,12,14,16,-1,-1,-1,-1,-1,-1,-1,-1],"split_conditions":[2E0,-2.5814364E-2,9.385399E-1,3E0,2.6732674E-1,2.2222222E-1,2.9E1,2.3232323E-1,9.4662845E-1,-9.124524E-3,1.1319912E-2,-9.055788E-3,5.621455E-3,1.5296727E-2,1.3283528E-4,4.97413E-3,2.233225E-2],"split_indices":[5,0,1,5,3,3,2,3,1,0,0,0,0,0,0,0,0],"split_type":[0,0,0,0,0,0,0,0,0,0,0,0,0,0,0,0,0],"sum_hessian":[8.688674E1,1.6173574E1,7.071317E1,4.6142666E1,2.4570503E1,1.8972393E1,2.7170275E1,9.505571E0,1.5064931E1,3.1432781E0,1.5829115E1,2.3815174E1,3.3551004E0,3.816974E0,5.6885977E0,2.1030831E0,1.2961848E1],"tree_param":{"num_deleted":"0","num_feature":"6","num_nodes":"17","size_leaf_vector":"1"}},{"base_weights":[2.86497E-2,-4.929279E-1,1.6177389E-1,-2.6916265E-2,-6.5378607E-3,-7.850036E-2,2.950676E-1,-1.6522596E-2,7.4532986E-2,4.3589056E-1,1.659324E-1,-2.396765E-3,9.661539E-3,8.242572E-3,2.3472391E-2,8.0820796E-4,1.788861E-2],"categories":[],"categories_nodes":[],"categories_segments":[],"categories_sizes":[],"default_left":[0,0,0,0,0,0,0,0,0,0,0,0,0,0,0,0,0],"id":33,"left_children":[1,3,5,-1,-1,7,9,-1,11,13,15,-1,-1,-1,-1,-1,-1],"loss_changes":[6.1849723E0,1.5746307E-1,2.3087096E0,0E0,0E0,1.0820037E0,6.89224E-1,0E0,2.8448153E-1,3.3545256E-2,7.684772E-1,0E0,0E0,0E0,0E0,0E0,0E0],"parents":[2147483647,0,0,1,1,2,2,5,5,6,6,8,8,9,9,10,10],"right_children":[2,4,6,-1,-1,8,10,-1,12,14,16,-1,-1,-1,-1,-1,-1],"split_conditions":[2E0,3.030303E-1,2.5E1,-2.6916265E-2,-6.5378607E-3,8.6109793E-1,3E0,-1.6522596E-2,9.2075205E-1,8.6326116E-1,9.458186E-1,-2.396765E-3,9.661539E-3,8.242572E-3,2.3472391E-2,8.0820796E-4,1.788861E-2],"split_indices":[5,3,2,0,0,1,5,0,1,1,1,0,0,0,0,0,0],"split_type":[0,0,0,0,0,0,0,0,0,0,0,0,0,0,0,0,0],"sum_hessian":[8.477931E1,1.6139515E1,6.863979E1,1.347738E1,2.6621363E0,2.478489E1,4.3854908E1,8.489396E0,1.6295492E1,1.8705498E1,2.5149408E1,8.607198E0,7.6882944E0,3.3635423E0,1.5341956E1,1.5341163E1,9.808245E0],"tree_param":{"num_deleted":"0","num_feature":"6","num_nodes":"17","size_leaf_vector":"1"}},{"base_weights":[4.072368E-3,-2.4917325E-2,1.2843575E-1,1.9301513E-2,3.6473018E-1,-8.790956E-2,1.9417134E-1,4.0314987E-1,3.6665478E-3,-3.8725996E-4,-1.7123831E-2,1.6350763E-2,2.8374034E-3,2.725108E-2,1.0614471E-2],"categories":[],"categories_nodes":[],"categories_segments":[],"categories_sizes":[],"default_left":[0,0,0,0,0,0,0,0,0,0,0,0,0,0,0],"id":34,"left_children":[1,-1,3,5,7,9,11,13,-1,-1,-1,-1,-1,-1,-1],"loss_changes":[5.487354E0,0E0,1.7999607E0,9.7588706E-1,1.8843722E-1,6.582741E-1,3.228001E-1,2.8557277E-1,0E0,0E0,0E0,0E0,0E0,0E0,0E0],"parents":[2147483647,0,0,2,2,3,3,4,4,5,5,6,6,7,7],"right_children":[2,-1,4,6,8,10,12,14,-1,-1,-1,-1,-1,-1,-1],"split_conditions":[2E0,-2.4917325E-2,2.8E1,9.2261994E-1,3.4E1,6E0,1.2826642E2,3E0,3.6665478E-3,-3.8725996E-4,-1.7123831E-2,1.6350763E-2,2.8374034E-3,2.725108E-2,1.0614471E-2],"split_indices":[5,0,2,1,2,5,0,5,0,0,0,0,0,0,0],"split_type":[0,0,0,0,0,0,0,0,0,0,0,0,0,0,0],"sum_hessian":[8.377349E1,1.5428626E1,6.834487E1,4.8231964E1,2.0112902E1,3.0516905E1,1.771506E1,1.7092358E1,3.0205457E0,2.4775755E1,5.741151E0,7.6046147E0,1.0110446E1,7.675641E0,9.416716E0],"tree_param":{"num_deleted":"0","num_feature":"6","num_nodes":"15","size_leaf_vector":"1"}},{"base_weights":[1.0331653E-2,-4.840992E-1,1.301529E-1,-2.6046066E-2,-8.307322E-3,-3.439318E-1,1.841464E-1,-2.0523867E-2,-3.7689588E-3,8.3615586E-2,3.4252924E-1,1.1690343E-2,-2.0919691E-3,1.94275E-2,5.6259898E-3],"categories":[],"categories_nodes":[],"categories_segments":[],"categories_sizes":[],"default_left":[0,0,0,0,0,0,0,0,0,0,0,0,0,0,0],"id":35,"left_children":[1,3,5,-1,-1,7,9,-1,-1,11,13,-1,-1,-1,-1],"loss_changes":[5.2335033E0,2.8753757E-2,1.9433488E0,0E0,0E0,8.026075E-2,9.779446E-1,0E0,0E0,8.188193E-1,1.729455E-1,0E0,0E0,0E0,0E0],"parents":[2147483647,0,0,1,1,2,2,5,5,6,6,9,9,10,10],"right_children":[2,4,6,-1,-1,8,10,-1,-1,12,14,-1,-1,-1,-1],"split_conditions":[2E0,1.5913872E2,8.391383E-1,-2.6046066E-2,-8.307322E-3,1.3974184E2,9.403174E-1,-2.0523867E-2,-3.7689588E-3,3E0,6E0,1.1690343E-2,-2.0919691E-3,1.94275E-2,5.6259898E-3],"split_indices":[5,0,1,0,0,0,1,0,0,5,5,0,0,0,0],"split_type":[0,0,0,0,0,0,0,0,0,0,0,0,0,0,0],"sum_hessian":[8.4212074E1,1.5241037E1,6.897104E1,1.2514961E1,2.7260764E0,5.9538755E0,6.3017162E1,3.9244602E0,2.0294154E0,4.041824E1,2.2598923E1,1.7609402E1,2.2808836E1,1.7682428E1,4.9164934E0],"tree_param":{"num_deleted":"0","num_feature":"6","num_nodes":"15","size_leaf_vector":"1"}},{"base_weights":[1.0625399E-2,-4.6632746E-1,1.2528601E-1,-2.5801037E-2,-5.750914E-3,1.021715E-2,3.5521132E-1,-3.2752463E-1,6.911423E-2,3.9023378E-1,1.0581034E-3,-1.9627826E-2,-3.780773E-3,6.699106E-3,-8.995498E-3,1.22985495E-2,2.6058877E-2],"categories":[],"categories_nodes":[],"categories_segments":[],"categories_sizes":[],"default_left":[0,0,0,0,0,0,0,0,0,0,0,0,0,0,0,0,0],"id":36,"left_children":[1,3,5,-1,-1,7,9,11,13,15,-1,-1,-1,-1,-1,-1,-1],"loss_changes":[4.7333055E0,1.7430615E-1,1.834983E0,0E0,0E0,1.00935E0,2.5450063E-1,6.423932E-2,7.4153113E-1,1.3752031E-1,0E0,0E0,0E0,0E0,0E0,0E0,0E0],"parents":[2147483647,0,0,1,1,2,2,5,5,6,6,7,7,8,8,9,9],"right_children":[2,4,6,-1,-1,8,10,12,14,16,-1,-1,-1,-1,-1,-1,-1],"split_conditions":[2E0,1.5913872E2,9.403174E-1,-2.5801037E-2,-5.750914E-3,8.364984E-1,1.860589E2,1.392897E2,6E0,2.8E1,1.0581034E-3,-1.9627826E-2,-3.780773E-3,6.699106E-3,-8.995498E-3,1.22985495E-2,2.6058877E-2],"split_indices":[5,0,1,0,0,1,0,0,5,2,0,0,0,0,0,0,0],"split_type":[0,0,0,0,0,0,0,0,0,0,0,0,0,0,0,0,0],"sum_hessian":[8.2414894E1,1.4783993E1,6.7630905E1,1.2130424E1,2.6535692E0,4.646554E1,2.1165361E1,5.54517E0,4.0920372E1,1.8852444E1,2.312917E0,3.5198476E0,2.025322E0,3.3196907E1,7.723464E0,1.1709165E1,7.1432786E0],"tree_param":{"num_deleted":"0","num_feature":"6","num_nodes":"17","size_leaf_vector":"1"}},{"base_weights":[-1.7325232E-3,-4.710535E-1,1.0803909E-1,-2.5711436E-2,-6.6019366E-3,-4.002231E-2,2.7246222E-1,-1.9257E-1,5.6607652E-2,1.1583802E-1,2.4590818E-2,-1.2180003E-2,-2.2311152E-4,7.673786E-3,-4.2288383E-3,1.4735946E-2,-2.5697432E-3],"categories":[],"categories_nodes":[],"categories_segments":[],"categories_sizes":[],"default_left":[0,0,0,0,0,0,0,0,0,0,0,0,0,0,0,0,0],"id":37,"left_children":[1,3,5,-1,-1,7,9,11,13,15,-1,-1,-1,-1,-1,-1,-1],"loss_changes":[4.430961E0,1.02817535E-1,1.719367E0,0E0,0E0,5.883509E-1,1.029968E0,1.4525962E-1,3.6889803E-1,6.8966365E-1,0E0,0E0,0E0,0E0,0E0,0E0,0E0],"parents":[2147483647,0,0,1,1,2,2,5,5,6,6,7,7,8,8,9,9],"right_children":[2,4,6,-1,-1,8,10,12,14,16,-1,-1,-1,-1,-1,-1,-1],"split_conditions":[2E0,3.030303E-1,2.685185E-1,-2.5711436E-2,-6.6019366E-3,8.7870723E-1,9.458186E-1,2.5E1,2.4731183E-1,3E0,2.4590818E-2,-1.2180003E-2,-2.2311152E-4,7.673786E-3,-4.2288383E-3,1.4735946E-2,-2.5697432E-3],"split_indices":[5,3,3,0,0,1,1,2,3,5,0,0,0,0,0,0,0],"split_type":[0,0,0,0,0,0,0,0,0,0,0,0,0,0,0,0,0],"sum_hessian":[8.2032104E1,1.4302087E1,6.773002E1,1.1769517E1,2.5325701E0,3.643439E1,3.1295628E1,1.3359037E1,2.3075354E1,2.0041605E1,1.1254023E1,1.0044226E1,3.3148117E0,1.3582289E1,9.493064E0,8.946895E0,1.1094711E1],"tree_param":{"num_deleted":"0","num_feature":"6","num_nodes":"17","size_leaf_vector":"1"}},{"base_weights":[2.1191567E-2,-1.2511763E-1,2.1144462E-1,-2.3071046E-1,7.566203E-2,7.678974E-2,4.0976167E-1,-1.99722E-2,-1.5221153E-1,2.4304959E-1,-1.02701895E-1,1.4531809E-1,-1.5984389E-1,2.2555796E-2,4.270198E-3,-1.05408365E-2,-1.2909634E-3,2.3075496E-4,1.8428354E-2,-1.1105897E-2,7.896244E-3,1.1384075E-4,1.6937485E-2,-1.2179384E-2,-2.3684662E-4],"categories":[],"categories_nodes":[],"categories_segments":[],"categories_sizes":[],"default_left":[0,0,0,0,0,0,0,0,0,0,0,0,0,0,0,0,0,0,0,0,0,0,0,0,0],"id":38,"left_children":[1,3,5,7,9,11,13,-1,15,17,19,21,23,-1,-1,-1,-1,-1,-1,-1,-1,-1,-1,-1,-1],"loss_changes":[2.3410382E0,1.0466895E0,9.11181E-1,2.991953E-1,5.859612E-1,4.3867886E-1,1.14631414E-1,0E0,1.7365366E-1,2.9156995E-1,3.8443655E-1,5.463873E-1,8.061527E-2,0E0,0E0,0E0,0E0,0E0,0E0,0E0,0E0,0E0,0E0,0E0,0E0],"parents":[2147483647,0,0,1,1,2,2,3,3,4,4,5,5,6,6,8,8,9,9,10,10,11,11,12,12],"right_children":[2,4,6,8,10,12,14,-1,16,18,20,22,24,-1,-1,-1,-1,-1,-1,-1,-1,-1,-1,-1,-1],"split_conditions":[2.7102804E-1,9.2200404E-1,9.458186E-1,8.391383E-1,1.2826642E2,3.1683168E-1,9.939592E-1,-1.99722E-2,2.5E1,1.193902E2,9.7007406E-1,2.9473683E-1,3.2954547E-1,2.2555796E-2,4.270198E-3,-1.05408365E-2,-1.2909634E-3,2.3075496E-4,1.8428354E-2,-1.1105897E-2,7.896244E-3,1.1384075E-4,1.6937485E-2,-1.2179384E-2,-2.3684662E-4],"split_indices":[3,1,1,1,0,3,1,0,2,0,1,3,3,0,0,0,0,0,0,0,0,0,0,0,0],"split_type":[0,0,0,0,0,0,0,0,0,0,0,0,0,0,0,0,0,0,0,0,0,0,0,0,0],"sum_hessian":[8.020097E1,4.572334E1,3.447763E1,2.976917E1,1.5954168E1,2.2187204E1,1.2290428E1,6.8557262E0,2.2913445E1,7.856154E0,8.098015E0,1.7803232E1,4.383972E0,1.0207429E1,2.0829985E0,1.4742004E1,8.17144E0,3.4244897E0,4.431664E0,5.756133E0,2.3418815E0,1.139802E1,6.405212E0,2.1060147E0,2.2779572E0],"tree_param":{"num_deleted":"0","num_feature":"6","num_nodes":"25","size_leaf_vector":"1"}},{"base_weights":[2.0999475E-3,-4.5747173E-1,1.0992217E-1,-2.5131006E-2,-5.330495E-3,-3.233979E-2,2.723377E-1,-1.6053468E-2,2.1936888E-2,4.0940198E-1,1.2840395E-1,4.0355753E-3,-8.636472E-3,2.2650559E-2,6.7777485E-3,-1.6611867E-3,1.8197518E-2],"categories":[],"categories_nodes":[],"categories_segments":[],"categories_sizes":[],"default_left":[0,0,0,0,0,0,0,0,0,0,0,0,0,0,0,0,0],"id":39,"left_children":[1,3,5,-1,-1,7,9,-1,11,13,15,-1,-1,-1,-1,-1,-1],"loss_changes":[4.128129E0,1.436398E-1,1.5759983E0,0E0,0E0,6.05545E-1,5.2033925E-1,0E0,4.127895E-1,6.0210943E-2,7.2387767E-1,0E0,0E0,0E0,0E0,0E0,0E0],"parents":[2147483647,0,0,1,1,2,2,5,5,6,6,8,8,9,9,10,10],"right_children":[2,4,6,-1,-1,8,10,-1,12,14,16,-1,-1,-1,-1,-1,-1],"split_conditions":[2E0,3.030303E-1,2.7102804E-1,-2.5131006E-2,-5.330495E-3,8.391383E-1,3E0,-1.6053468E-2,6E0,3.1E1,9.5105433E-1,4.0355753E-3,-8.636472E-3,2.2650559E-2,6.7777485E-3,-1.6611867E-3,1.8197518E-2],"split_indices":[5,3,3,0,0,1,5,0,5,2,1,0,0,0,0,0,0],"split_type":[0,0,0,0,0,0,0,0,0,0,0,0,0,0,0,0,0],"sum_hessian":[7.927932E1,1.3833024E1,6.54463E1,1.1489511E1,2.343514E0,3.574155E1,2.9704744E1,4.100063E0,3.1641487E1,1.3325996E1,1.6378748E1,2.520288E1,6.4386077E0,1.0366646E1,2.9593506E0,1.0732323E1,5.6464252E0],"tree_param":{"num_deleted":"0","num_feature":"6","num_nodes":"17","size_leaf_vector":"1"}},{"base_weights":[-1.0665452E-2,-1.4438461E-1,1.5908839E-1,-3.1865036E-1,-4.761654E-2,6.051404E-2,3.5395184E-1,-1.8189825E-2,-2.2496765E-3,4.381632E-2,-1.7955655E-1,-2.9646961E-2,2.0145266E-1,2.006231E-2,4.644913E-3,-1.2295964E-2,6.321333E-3,-1.1487042E-2,1.0750984E-3,9.785458E-3,-4.2916723E-3,1.4305243E-2,1.4781426E-3],"categories":[],"categories_nodes":[],"categories_segments":[],"categories_sizes":[],"default_left":[0,0,0,0,0,0,0,0,0,0,0,0,0,0,0,0,0,0,0,0,0,0,0],"id":40,"left_children":[1,3,5,7,9,11,13,-1,-1,15,17,19,21,-1,-1,-1,-1,-1,-1,-1,-1,-1,-1],"loss_changes":[1.8509357E0,7.3741263E-1,6.484644E-1,1.6374636E-1,3.972421E-1,3.462947E-1,6.962347E-2,0E0,0E0,5.477631E-1,1.4445108E-1,2.5885358E-1,1.3618615E-1,0E0,0E0,0E0,0E0,0E0,0E0,0E0,0E0,0E0,0E0],"parents":[2147483647,0,0,1,1,2,2,3,3,4,4,5,5,6,6,9,9,10,10,11,11,12,12],"right_children":[2,4,6,8,10,12,14,-1,-1,16,18,20,22,-1,-1,-1,-1,-1,-1,-1,-1,-1,-1],"split_conditions":[2.685185E-1,8.6738807E-1,9.5105433E-1,2.5E1,1.2826642E2,2.9E1,3.1E1,-1.8189825E-2,-2.2496765E-3,1.1584044E2,9.675246E-1,1.2359129E2,3.1683168E-1,2.006231E-2,4.644913E-3,-1.2295964E-2,6.321333E-3,-1.1487042E-2,1.0750984E-3,9.785458E-3,-4.2916723E-3,1.4305243E-2,1.4781426E-3],"split_indices":[3,1,1,2,0,2,2,0,0,0,1,0,3,0,0,0,0,0,0,0,0,0,0],"split_type":[0,0,0,0,0,0,0,0,0,0,0,0,0,0,0,0,0,0,0,0,0,0,0],"sum_hessian":[7.7517555E1,4.3528225E1,3.3989326E1,1.3903717E1,2.9624506E1,2.4311909E1,9.677419E0,1.1369303E1,2.5344143E0,1.8287382E1,1.1337125E1,1.5790031E1,8.521878E0,7.283784E0,2.3936348E0,3.180131E0,1.5107251E1,8.844276E0,2.4928477E0,2.1600316E0,1.363E1,4.81946E0,3.7024179E0],"tree_param":{"num_deleted":"0","num_feature":"6","num_nodes":"23","size_leaf_vector":"1"}},{"base_weights":[8.103787E-3,-4.4641662E-1,1.1359676E-1,-2.4835408E-2,-4.1362564E-3,1.266936E-2,3.332047E-1,1.6556218E-1,-1.1496604E-1,1.9464886E-2,8.190824E-2,3.9097728E-4,1.6535578E-2,-8.3668595E-3,5.5364585E-3,-5.2997796E-3,1.124199E-2],"categories":[],"categories_nodes":[],"categories_segments":[],"categories_sizes":[],"default_left":[0,0,0,0,0,0,0,0,0,0,0,0,0,0,0,0,0],"id":41,"left_children":[1,3,5,-1,-1,7,9,11,13,-1,15,-1,-1,-1,-1,-1,-1],"loss_changes":[3.9211404E0,1.99718E-1,1.4599607E0,0E0,0E0,9.644052E-1,2.2915936E-1,5.788215E-1,3.568088E-1,0E0,2.1754079E-1,0E0,0E0,0E0,0E0,0E0,0E0],"parents":[2147483647,0,0,1,1,2,2,5,5,6,6,7,7,8,8,10,10],"right_children":[2,4,6,-1,-1,8,10,12,14,-1,16,-1,-1,-1,-1,-1,-1],"split_conditions":[2E0,3.030303E-1,9.403174E-1,-2.4835408E-2,-4.1362564E-3,3E0,6E0,2.647059E-1,2.9473683E-1,1.9464886E-2,8E0,3.9097728E-4,1.6535578E-2,-8.3668595E-3,5.5364585E-3,-5.2997796E-3,1.124199E-2],"split_indices":[5,3,1,0,0,5,5,3,3,0,5,0,0,0,0,0,0],"split_type":[0,0,0,0,0,0,0,0,0,0,0,0,0,0,0,0,0],"sum_hessian":[7.7662575E1,1.3412195E1,6.425038E1,1.1140234E1,2.271961E0,4.546908E1,1.8781298E1,2.0417234E1,2.5051846E1,1.4456158E1,4.3251405E0,1.1514163E1,8.903072E0,2.0753311E1,4.2985344E0,2.0918891E0,2.2332513E0],"tree_param":{"num_deleted":"0","num_feature":"6","num_nodes":"17","size_leaf_vector":"1"}},{"base_weights":[-1.5784709E-2,-4.509054E-1,8.556176E-2,-2.4566751E-2,-5.9356103E-3,-9.309077E-2,1.859896E-1,-1.598516E-2,-2.6930692E-2,3.1521267E-1,7.3301874E-2,6.208749E-3,-1.1151312E-2,1.7733356E-2,1.2936634E-3,9.5523783E-4,1.4957209E-2],"categories":[],"categories_nodes":[],"categories_segments":[],"categories_sizes":[],"default_left":[0,0,0,0,0,0,0,0,0,0,0,0,0,0,0,0,0],"id":42,"left_children":[1,3,5,-1,-1,7,9,-1,11,13,15,-1,-1,-1,-1,-1,-1],"loss_changes":[3.5741634E0,8.883166E-2,1.2187929E0,0E0,0E0,3.5884845E-1,5.787443E-1,0E0,6.953947E-1,2.0295095E-1,3.0107483E-1,0E0,0E0,0E0,0E0,0E0,0E0],"parents":[2147483647,0,0,1,1,2,2,5,5,6,6,8,8,9,9,10,10],"right_children":[2,4,6,-1,-1,8,10,-1,12,14,16,-1,-1,-1,-1,-1,-1],"split_conditions":[2E0,3.030303E-1,2.5E1,-2.4566751E-2,-5.9356103E-3,1.1537206E2,3E0,-1.598516E-2,1.2826642E2,1.7785965E2,3.2258064E-1,6.208749E-3,-1.1151312E-2,1.7733356E-2,1.2936634E-3,9.5523783E-4,1.4957209E-2],"split_indices":[5,3,2,0,0,0,5,0,0,0,3,0,0,0,0,0,0],"split_type":[0,0,0,0,0,0,0,0,0,0,0,0,0,0,0,0,0],"sum_hessian":[7.730081E1,1.3300063E1,6.4000755E1,1.1002834E1,2.2972286E0,2.3083427E1,4.0917324E1,3.484328E0,1.95991E1,1.7385876E1,2.3531448E1,1.148365E1,8.115449E0,1.4902236E1,2.483639E0,2.0726692E1,2.804757E0],"tree_param":{"num_deleted":"0","num_feature":"6","num_nodes":"17","size_leaf_vector":"1"}},{"base_weights":[1.1212369E-2,-4.499962E-1,1.1810507E-1,-2.4734495E-2,-6.4822496E-3,9.188987E-3,3.091783E-1,-1.1468819E-1,1.3870443E-1,3.3559847E-1,1.7537756E-3,-1.2355624E-2,2.8826927E-3,1.2790459E-2,-4.09923E-3,6.236277E-3,1.9996494E-2],"categories":[],"categories_nodes":[],"categories_segments":[],"categories_sizes":[],"default_left":[0,0,0,0,0,0,0,0,0,0,0,0,0,0,0,0,0],"id":43,"left_children":[1,3,5,-1,-1,7,9,11,13,15,-1,-1,-1,-1,-1,-1,-1],"loss_changes":[3.998322E0,9.0364456E-2,1.3610973E0,0E0,0E0,7.3602694E-1,1.4869356E-1,5.6548715E-1,6.1989164E-1,1.913464E-1,0E0,0E0,0E0,0E0,0E0,0E0,0E0],"parents":[2147483647,0,0,1,1,2,2,5,5,6,6,7,7,8,8,9,9],"right_children":[2,4,6,-1,-1,8,10,12,14,16,-1,-1,-1,-1,-1,-1,-1],"split_conditions":[2E0,1.5913872E2,9.340163E-1,-2.4734495E-2,-6.4822496E-3,2.6E1,1.860589E2,8.7870723E-1,9.0256095E-1,2.5E1,1.7537756E-3,-1.2355624E-2,2.8826927E-3,1.2790459E-2,-4.09923E-3,6.236277E-3,1.9996494E-2],"split_indices":[5,0,1,0,0,2,0,1,1,2,0,0,0,0,0,0,0],"split_type":[0,0,0,0,0,0,0,0,0,0,0,0,0,0,0,0,0],"sum_hessian":[7.694608E1,1.3270112E1,6.367597E1,1.0690245E1,2.5798666E0,4.1892483E1,2.1783485E1,2.1529348E1,2.0363134E1,1.9459154E1,2.3243303E0,1.1683939E1,9.84541E0,1.3095801E1,7.2673335E0,5.922685E0,1.3536469E1],"tree_param":{"num_deleted":"0","num_feature":"6","num_nodes":"17","size_leaf_vector":"1"}},{"base_weights":[-3.9084052E-4,-4.3610466E-1,9.764683E-2,-2.4089571E-2,-4.510012E-3,-2.1591492E-1,1.6630946E-1,-2.5088042E-1,-8.750028E-4,3.341025E-1,4.0291853E-2,-4.8508975E-3,-1.52954655E-2,8.199166E-3,2.06198E-2,-4.326306E-4,1.5872853E-2],"categories":[],"categories_nodes":[],"categories_segments":[],"categories_sizes":[],"default_left":[0,0,0,0,0,0,0,0,0,0,0,0,0,0,0,0,0],"id":44,"left_children":[1,3,5,-1,-1,7,9,11,-1,13,15,-1,-1,-1,-1,-1,-1],"loss_changes":[3.430786E0,1.4621043E-1,1.483536E0,0E0,0E0,7.897502E-2,1.1343693E0,3.0426085E-2,0E0,1.7484164E-1,4.618317E-1,0E0,0E0,0E0,0E0,0E0,0E0],"parents":[2147483647,0,0,1,1,2,2,5,5,6,6,7,7,9,9,10,10],"right_children":[2,4,6,-1,-1,8,10,12,-1,14,16,-1,-1,-1,-1,-1,-1],"split_conditions":[2E0,3.030303E-1,2.2826087E-1,-2.4089571E-2,-4.510012E-3,1.370434E2,3E0,2E1,-8.750028E-4,2.647059E-1,3.2258064E-1,-4.8508975E-3,-1.52954655E-2,8.199166E-3,2.06198E-2,-4.326306E-4,1.5872853E-2],"split_indices":[5,3,3,0,0,0,5,2,0,3,3,0,0,0,0,0,0],"split_type":[0,0,0,0,0,0,0,0,0,0,0,0,0,0,0,0,0],"sum_hessian":[7.632167E1,1.275175E1,6.3569923E1,1.0569984E1,2.1817653E0,1.0649172E1,5.2920753E1,8.604078E0,2.0450933E0,2.1281654E1,3.16391E1,3.7223492E0,4.881729E0,8.658048E0,1.2623606E1,2.8537277E1,3.1018207E0],"tree_param":{"num_deleted":"0","num_feature":"6","num_nodes":"17","size_leaf_vector":"1"}},{"base_weights":[-1.0483988E-2,-4.399844E-1,8.6117215E-2,-2.3949133E-2,-5.358869E-3,2.3305479E-1,-1.9352667E-2,-6.7800293E-3,2.7459604E-1,-1.7082049E-1,7.708617E-2,1.5564931E-2,-2.6932012E-3,-4.165156E-3,-1.4317395E-2,1.3571027E-3,1.40954945E-2],"categories":[],"categories_nodes":[],"categories_segments":[],"categories_sizes":[],"default_left":[0,0,0,0,0,0,0,0,0,0,0,0,0,0,0,0,0],"id":45,"left_children":[1,3,5,-1,-1,7,9,-1,11,13,15,-1,-1,-1,-1,-1,-1],"loss_changes":[3.215569E0,8.1922054E-2,9.923776E-1,0E0,0E0,4.8286593E-1,5.9288704E-1,0E0,3.3043325E-1,1.1112955E-1,2.412117E-1,0E0,0E0,0E0,0E0,0E0,0E0],"parents":[2147483647,0,0,1,1,2,2,5,5,6,6,8,8,9,9,10,10],"right_children":[2,4,6,-1,-1,8,10,-1,12,14,16,-1,-1,-1,-1,-1,-1],"split_conditions":[2E0,3.030303E-1,3E0,-2.3949133E-2,-5.358869E-3,1.1404882E2,2.5E1,-6.7800293E-3,1.8088258E2,6E0,3.2258064E-1,1.5564931E-2,-2.6932012E-3,-4.165156E-3,-1.4317395E-2,1.3571027E-3,1.40954945E-2],"split_indices":[5,3,5,0,0,0,2,0,0,5,3,0,0,0,0,0,0],"split_type":[0,0,0,0,0,0,0,0,0,0,0,0,0,0,0,0,0],"sum_hessian":[7.367532E1,1.2222655E1,6.1452667E1,1.0154332E1,2.0683231E0,2.46674E1,3.6785267E1,2.0395002E0,2.2627901E1,1.3709859E1,2.3075409E1,2.044756E1,2.1803412E0,9.759056E0,3.9508026E0,2.0372755E1,2.7026553E0],"tree_param":{"num_deleted":"0","num_feature":"6","num_nodes":"17","size_leaf_vector":"1"}},{"base_weights":[6.995879E-4,-4.3863487E-1,9.812972E-2,-2.379552E-2,-6.9748587E-3,-8.4475875E-2,2.0034133E-1,-2.9200938E-1,4.435441E-2,3.3220816E-1,9.189451E-2,-1.6500387E-2,-4.6281675E-3,7.5712763E-3,-8.153833E-3,1.9458657E-2,-2.955104E-3,-6.1540556E-4,1.3698297E-2],"categories":[],"categories_nodes":[],"categories_segments":[],"categories_sizes":[],"default_left":[0,0,0,0,0,0,0,0,0,0,0,0,0,0,0,0,0,0,0],"id":46,"left_children":[1,3,5,-1,-1,7,9,11,13,15,17,-1,-1,-1,-1,-1,-1,-1,-1],"loss_changes":[3.437592E0,2.9773712E-2,1.2604792E0,0E0,0E0,6.9409657E-1,5.499861E-1,1.3448238E-2,4.3041888E-1,4.587741E-1,5.0403106E-1,0E0,0E0,0E0,0E0,0E0,0E0,0E0,0E0],"parents":[2147483647,0,0,1,1,2,2,5,5,6,6,7,7,8,8,9,9,10,10],"right_children":[2,4,6,-1,-1,8,10,12,14,16,18,-1,-1,-1,-1,-1,-1,-1,-1],"split_conditions":[2E0,1.5913872E2,2.5E1,-2.379552E-2,-6.9748587E-3,8.682142E-1,3E0,1.3974184E2,1.2826642E2,1.784506E2,9.518986E-1,-1.6500387E-2,-4.6281675E-3,7.5712763E-3,-8.153833E-3,1.9458657E-2,-2.955104E-3,-6.1540556E-4,1.3698297E-2],"split_indices":[5,0,2,0,0,1,5,0,0,0,1,0,0,0,0,0,0,0,0],"split_type":[0,0,0,0,0,0,0,0,0,0,0,0,0,0,0,0,0,0,0],"sum_hessian":[7.6298134E1,1.2577819E1,6.3720318E1,1.0133236E1,2.4445834E0,2.2991686E1,4.072863E1,7.835764E0,1.5155922E1,1.6517447E1,2.4211185E1,5.482078E0,2.353686E0,1.0352298E1,4.8036246E0,1.4428012E1,2.0894346E0,1.6584429E1,7.626756E0],"tree_param":{"num_deleted":"0","num_feature":"6","num_nodes":"19","size_leaf_vector":"1"}},{"base_weights":[-6.574348E-3,-4.4405684E-1,9.082376E-2,-2.3765363E-2,-6.923705E-3,-8.302469E-2,1.8930976E-1,-1.4537588E-2,5.6053616E-2,2.441293E-1,-3.3941984E-2,5.9107556E-3,-8.731928E-3,8.863709E-3,2.3124108E-2,-6.165521E-3,4.419718E-3],"categories":[],"categories_nodes":[],"categories_segments":[],"categories_sizes":[],"default_left":[0,0,0,0,0,0,0,0,0,0,0,0,0,0,0,0,0],"id":47,"left_children":[1,3,5,-1,-1,7,9,-1,11,13,15,-1,-1,-1,-1,-1,-1],"loss_changes":[3.337126E0,4.5039654E-3,1.130111E0,0E0,0E0,7.4318373E-1,5.253638E-1,0E0,2.765994E-1,3.2683015E-1,1.306011E-1,0E0,0E0,0E0,0E0,0E0,0E0],"parents":[2147483647,0,0,1,1,2,2,5,5,6,6,8,8,9,9,10,10],"right_children":[2,4,6,-1,-1,8,10,-1,12,14,16,-1,-1,-1,-1,-1,-1],"split_conditions":[2E0,3.030303E-1,2.5E1,-2.3765363E-2,-6.923705E-3,8.7443507E-1,6E0,-1.4537588E-2,6E0,9.675246E-1,2.8E1,5.9107556E-3,-8.731928E-3,8.863709E-3,2.3124108E-2,-6.165521E-3,4.419718E-3],"split_indices":[5,3,2,0,0,1,5,0,5,1,2,0,0,0,0,0,0],"split_type":[0,0,0,0,0,0,0,0,0,0,0,0,0,0,0,0,0],"sum_hessian":[7.442494E1,1.2256064E1,6.2168877E1,1.0111216E1,2.1448486E0,2.2596064E1,3.9572815E1,8.186942E0,1.4409122E1,3.162119E1,7.9516244E0,1.2118769E1,2.2903535E0,2.6983225E1,4.6379642E0,4.5857463E0,3.365878E0],"tree_param":{"num_deleted":"0","num_feature":"6","num_nodes":"17","size_leaf_vector":"1"}},{"base_weights":[2.1741951E-3,-2.189252E-2,9.796858E-2,-4.0067274E-2,2.6622248E-1,-1.9919951E-1,6.3378215E-2,8.119395E-2,3.7776768E-1,-1.3679968E-2,6.0090395E-3,7.595928E-3,-3.647541E-3,6.9608907E-3,-1.2835546E-3,2.2585692E-2,2.7310392E-3],"categories":[],"categories_nodes":[],"categories_segments":[],"categories_sizes":[],"default_left":[0,0,0,0,0,0,0,0,0,0,0,0,0,0,0,0,0],"id":48,"left_children":[1,-1,3,5,7,9,11,13,15,-1,-1,-1,-1,-1,-1,-1,-1],"loss_changes":[3.251489E0,0E0,1.4917041E0,6.263617E-1,5.329242E-1,4.1907078E-1,3.07605E-1,9.0095595E-2,3.668251E-1,0E0,0E0,0E0,0E0,0E0,0E0,0E0,0E0],"parents":[2147483647,0,0,2,2,3,3,4,4,5,5,6,6,7,7,8,8],"right_children":[2,-1,4,6,8,10,12,14,16,-1,-1,-1,-1,-1,-1,-1,-1],"split_conditions":[2E0,-2.189252E-2,2.7102804E-1,8.7870723E-1,9.041802E-1,2.6E1,1.2826642E2,1.5402502E2,6E0,-1.3679968E-2,6.0090395E-3,7.595928E-3,-3.647541E-3,6.9608907E-3,-1.2835546E-3,2.2585692E-2,2.7310392E-3],"split_indices":[5,0,3,1,1,2,0,0,5,0,0,0,0,0,0,0,0],"split_type":[0,0,0,0,0,0,0,0,0,0,0,0,0,0,0,0,0],"sum_hessian":[7.310217E1,1.1792538E1,6.1309635E1,3.45162E1,2.6793436E1,1.2868711E1,2.1647488E1,1.137713E1,1.5416306E1,1.0669849E1,2.198862E0,1.2985325E1,8.662163E0,6.9811363E0,4.3959928E0,1.189796E1,3.5183456E0],"tree_param":{"num_deleted":"0","num_feature":"6","num_nodes":"17","size_leaf_vector":"1"}},{"base_weights":[3.148558E-4,-3.5102805E-1,5.4710094E-2,-2.143008E-2,-2.4554045E-3,-2.7038505E-2,2.3376739E-1,-5.8246464E-2,1.480782E-2,2.845575E-1,-5.766771E-3,2.0016057E-3,-7.1786046E-3,8.355661E-3,1.7923478E-2],"categories":[],"categories_nodes":[],"categories_segments":[],"categories_sizes":[],"default_left":[0,0,0,0,0,0,0,0,0,0,0,0,0,0,0],"id":49,"left_children":[1,3,5,-1,-1,7,9,11,-1,13,-1,-1,-1,-1,-1],"loss_changes":[1.4730481E0,1.9992673E-1,9.8946774E-1,0E0,0E0,5.1469564E-1,4.402014E-1,3.8958752E-1,0E0,4.528141E-2,0E0,0E0,0E0,0E0,0E0],"parents":[2147483647,0,0,1,1,2,2,5,5,6,6,7,7,9,9],"right_children":[2,4,6,-1,-1,8,10,12,-1,14,-1,-1,-1,-1,-1],"split_conditions":[8.378235E-1,1.4418715E2,2.8E1,-2.143008E-2,-2.4554045E-3,9.755311E-1,1.8957764E2,1.2826642E2,1.480782E-2,9.319056E-1,-5.766771E-3,2.0016057E-3,-7.1786046E-3,8.355661E-3,1.7923478E-2],"split_indices":[1,0,2,0,0,1,0,0,0,1,0,0,0,0,0],"split_type":[0,0,0,0,0,0,0,0,0,0,0,0,0,0,0],"sum_hessian":[7.306722E1,8.333561E0,6.4733665E1,5.962435E0,2.3711267E0,4.560891E1,1.9124756E1,4.3087868E1,2.5210407E0,1.7018547E1,2.1062086E0,2.051743E1,2.2570438E1,9.092598E0,7.9259486E0],"tree_param":{"num_deleted":"0","num_feature":"6","num_nodes":"15","size_leaf_vector":"1"}},{"base_weights":[4.0749446E-3,-1.3538386E-1,1.7579359E-1,-2.8298065E-1,-3.0258259E-2,9.311174E-2,3.2298887E-1,-1.6680753E-2,4.2979867E-4,7.6185174E-2,-1.7681393E-1,-5.0396025E-3,2.3308362E-1,1.9309238E-2,1.2029719E-3,-6.5842825E-3,8.868787E-3,-1.626732E-2,-4.0834122E-3,2.4228846E-3,-6.538186E-3,1.5975906E-2,-1.6945523E-3],"categories":[],"categories_nodes":[],"categories_segments":[],"categories_sizes":[],"default_left":[0,0,0,0,0,0,0,0,0,0,0,0,0,0,0,0,0,0,0,0,0,0,0],"id":50,"left_children":[1,3,5,7,9,11,13,-1,-1,15,17,19,21,-1,-1,-1,-1,-1,-1,-1,-1,-1,-1],"loss_changes":[1.8384985E0,6.4073414E-1,3.5833788E-1,2.6258183E-1,4.4815642E-1,3.434465E-1,1.9975436E-1,0E0,0E0,4.0511963E-1,1.159139E-1,1.2399922E-1,2.5878686E-1,0E0,0E0,0E0,0E0,0E0,0E0,0E0,0E0,0E0,0E0],"parents":[2147483647,0,0,1,1,2,2,3,3,4,4,5,5,6,6,9,9,10,10,11,11,12,12],"right_children":[2,4,6,8,10,12,14,-1,-1,16,18,20,22,-1,-1,-1,-1,-1,-1,-1,-1,-1,-1],"split_conditions":[2.685185E-1,8.7870723E-1,9.5105433E-1,2.6E1,1.2794308E2,2.9E1,1.7180731E2,-1.6680753E-2,4.2979867E-4,2.2580644E-1,1.309175E2,1.5804657E2,1.7953282E2,1.9309238E-2,1.2029719E-3,-6.5842825E-3,8.868787E-3,-1.626732E-2,-4.0834122E-3,2.4228846E-3,-6.538186E-3,1.5975906E-2,-1.6945523E-3],"split_indices":[3,1,1,2,0,2,0,0,0,3,0,0,0,0,0,0,0,0,0,0,0,0,0],"split_type":[0,0,0,0,0,0,0,0,0,0,0,0,0,0,0,0,0,0,0,0,0,0,0],"sum_hessian":[7.278384E1,4.0398205E1,3.2385628E1,1.5397036E1,2.500117E1,2.2827961E1,9.557669E0,1.2873165E1,2.5238702E0,1.5038805E1,9.962365E0,1.4551867E1,8.276095E0,7.4078164E0,2.1498518E0,4.7265534E0,1.0312252E1,2.0004854E0,7.9618797E0,1.1070404E1,3.481462E0,5.9546304E0,2.3214648E0],"tree_param":{"num_deleted":"0","num_feature":"6","num_nodes":"23","size_leaf_vector":"1"}},{"base_weights":[2.809099E-3,-1.0823672E-1,1.7086977E-1,-2.4205886E-1,4.950359E-2,9.743903E-2,1.610151E-2,-1.6856529E-2,-6.069902E-2,-4.470254E-2,1.7578062E-1,1.3368712E-1,-6.834683E-3,4.4273944E-3,-7.616757E-3,1.0238168E-2,-6.98084E-3,1.4777488E-2,-2.908023E-3,2.163633E-3,1.5151599E-2],"categories":[],"categories_nodes":[],"categories_segments":[],"categories_sizes":[],"default_left":[0,0,0,0,0,0,0,0,0,0,0,0,0,0,0,0,0,0,0,0,0],"id":51,"left_children":[1,3,5,7,9,11,-1,-1,13,15,17,19,-1,-1,-1,-1,-1,-1,-1,-1,-1],"loss_changes":[1.4256849E0,9.956257E-1,2.7446717E-1,3.9431334E-1,2.8679782E-1,2.3442422E-1,0E0,0E0,1.7907016E-1,4.0395302E-1,3.1854522E-1,2.9838598E-1,0E0,0E0,0E0,0E0,0E0,0E0,0E0,0E0,0E0],"parents":[2147483647,0,0,1,1,2,2,3,3,4,4,5,5,8,8,9,9,10,10,11,11],"right_children":[2,4,6,8,10,12,-1,-1,14,16,18,20,-1,-1,-1,-1,-1,-1,-1,-1,-1],"split_conditions":[9.2261994E-1,2.6E1,9.726629E-1,8.7870723E-1,2.9473683E-1,1.860589E2,1.610151E-2,-1.6856529E-2,8.950817E-1,1.19599724E2,3.1683168E-1,2.8E1,-6.834683E-3,4.4273944E-3,-7.616757E-3,1.0238168E-2,-6.98084E-3,1.4777488E-2,-2.908023E-3,2.163633E-3,1.5151599E-2],"split_indices":[1,2,1,1,3,0,0,0,1,0,3,2,0,0,0,0,0,0,0,0,0],"split_type":[0,0,0,0,0,0,0,0,0,0,0,0,0,0,0,0,0,0,0,0,0],"sum_hessian":[7.241131E1,4.4030293E1,2.8381014E1,2.3242758E1,2.0787537E1,2.1315552E1,7.065461E0,1.4121982E1,9.120776E0,1.264558E1,8.141957E0,1.9200916E1,2.114636E0,3.4953437E0,5.625432E0,2.847283E0,9.798297E0,5.0366683E0,3.1052885E0,1.4154686E1,5.046231E0],"tree_param":{"num_deleted":"0","num_feature":"6","num_nodes":"21","size_leaf_vector":"1"}},{"base_weights":[6.0203113E-3,-4.1576594E-1,9.594858E-2,-2.2884442E-2,-5.746699E-3,-2.5555938E-2,2.3161452E-1,3.804763E-2,-1.1834779E-2,3.29956E-1,1.2397755E-1,-1.2114325E-2,4.684052E-3,1.9239707E-2,2.8720764E-5,6.336342E-4,1.219824E-2],"categories":[],"categories_nodes":[],"categories_segments":[],"categories_sizes":[],"default_left":[0,0,0,0,0,0,0,0,0,0,0,0,0,0,0,0,0],"id":52,"left_children":[1,3,5,-1,-1,7,9,11,-1,13,15,-1,-1,-1,-1,-1,-1],"loss_changes":[2.9013884E0,6.439495E-2,1.0493553E0,0E0,0E0,4.8809618E-1,2.350651E-1,4.9181342E-1,0E0,2.6037896E-1,2.2748372E-1,0E0,0E0,0E0,0E0,0E0,0E0],"parents":[2147483647,0,0,1,1,2,2,5,5,6,6,7,7,9,9,10,10],"right_children":[2,4,6,-1,-1,8,10,12,-1,14,16,-1,-1,-1,-1,-1,-1],"split_conditions":[2E0,1.5913872E2,2.685185E-1,-2.2884442E-2,-5.746699E-3,6E0,3E0,1.1461771E2,-1.1834779E-2,1.7953282E2,2.9E1,-1.2114325E-2,4.684052E-3,1.9239707E-2,2.8720764E-5,6.336342E-4,1.219824E-2],"split_indices":[5,0,3,0,0,5,5,0,0,0,2,0,0,0,0,0,0],"split_type":[0,0,0,0,0,0,0,0,0,0,0,0,0,0,0,0,0],"sum_hessian":[7.238878E1,1.1448028E1,6.094075E1,9.13253E0,2.315497E0,3.3004585E1,2.7936165E1,2.662399E1,6.380596E0,1.2439779E1,1.5496387E1,3.2975721E0,2.3326418E1,1.0375857E1,2.0639217E0,9.18617E0,6.310217E0],"tree_param":{"num_deleted":"0","num_feature":"6","num_nodes":"17","size_leaf_vector":"1"}},{"base_weights":[1.7036013E-2,-4.1672873E-1,1.1226867E-1,-2.2976791E-2,-5.3502717E-3,-2.7060607E-1,1.5867724E-1,-1.7251072E-2,-1.9001501E-3,2.2319523E-1,-1.04101524E-1,6.4003007E-3,1.8207744E-2,-9.898192E-3,5.6451294E-3],"categories":[],"categories_nodes":[],"categories_segments":[],"categories_sizes":[],"default_left":[0,0,0,0,0,0,0,0,0,0,0,0,0,0,0],"id":53,"left_children":[1,3,5,-1,-1,7,9,-1,-1,11,13,-1,-1,-1,-1],"loss_changes":[3.1057563E0,8.1327915E-2,1.1762955E0,0E0,0E0,1.01406336E-1,9.95788E-1,0E0,0E0,5.18522E-1,2.9730344E-1,0E0,0E0,0E0,0E0],"parents":[2147483647,0,0,1,1,2,2,5,5,6,6,9,9,10,10],"right_children":[2,4,6,-1,-1,8,10,-1,-1,12,14,-1,-1,-1,-1],"split_conditions":[2E0,3.030303E-1,8.378235E-1,-2.2976791E-2,-5.3502717E-3,1.4120546E2,6E0,-1.7251072E-2,-1.9001501E-3,2.8E-1,2.8E1,6.4003007E-3,1.8207744E-2,-9.898192E-3,5.6451294E-3],"split_indices":[5,3,1,0,0,0,5,0,0,3,2,0,0,0,0],"split_type":[0,0,0,0,0,0,0,0,0,0,0,0,0,0,0],"sum_hessian":[7.0919136E1,1.1551712E1,5.9367424E1,9.299083E0,2.2526288E0,5.37352E0,5.3993904E1,3.338759E0,2.034761E0,4.3592304E1,1.0401602E1,2.8298622E1,1.529368E1,7.3834634E0,3.0181382E0],"tree_param":{"num_deleted":"0","num_feature":"6","num_nodes":"15","size_leaf_vector":"1"}},{"base_weights":[-7.4874697E-4,-4.140515E-1,8.829202E-2,-2.2327686E-2,-6.486382E-3,-8.62026E-2,1.8850681E-1,-1.524543E-2,-1.717638E-2,2.8352368E-1,9.839998E-2,5.1961094E-3,-8.970626E-3,1.4637915E-3,1.779192E-2,-1.6437502E-3,8.422974E-3],"categories":[],"categories_nodes":[],"categories_segments":[],"categories_sizes":[],"default_left":[0,0,0,0,0,0,0,0,0,0,0,0,0,0,0,0,0],"id":54,"left_children":[1,3,5,-1,-1,7,9,-1,11,13,15,-1,-1,-1,-1,-1,-1],"loss_changes":[2.7175167E0,5.0899982E-3,1.0951623E0,0E0,0E0,3.4491247E-1,2.8005826E-1,0E0,4.3047723E-1,3.106737E-1,2.2442229E-1,0E0,0E0,0E0,0E0,0E0,0E0],"parents":[2147483647,0,0,1,1,2,2,5,5,6,6,8,8,9,9,10,10],"right_children":[2,4,6,-1,-1,8,10,-1,12,14,16,-1,-1,-1,-1,-1,-1],"split_conditions":[2E0,3.030303E-1,2.5E1,-2.2327686E-2,-6.486382E-3,1.156836E2,3E0,-1.524543E-2,1.2826642E2,2.647059E-1,1.4646593E2,5.1961094E-3,-8.970626E-3,1.4637915E-3,1.779192E-2,-1.6437502E-3,8.422974E-3],"split_indices":[5,3,2,0,0,0,5,0,0,3,0,0,0,0,0,0,0],"split_type":[0,0,0,0,0,0,0,0,0,0,0,0,0,0,0,0,0],"sum_hessian":[6.985719E1,1.1088263E1,5.8768936E1,8.926658E0,2.1616042E0,2.1541094E1,3.722784E1,3.528056E0,1.8013037E1,1.6030628E1,2.1197214E1,1.0725807E1,7.28723E0,4.1720366E0,1.1858591E1,7.745493E0,1.3451721E1],"tree_param":{"num_deleted":"0","num_feature":"6","num_nodes":"17","size_leaf_vector":"1"}},{"base_weights":[-4.8763114E-3,-4.0388915E-1,7.9160586E-2,-2.2270987E-2,-5.7421424E-3,-1.9552457E-1,1.405814E-1,-1.3462134E-2,-3.746098E-4,2.817617E-1,3.4559876E-2,3.3974287E-3,1.8225504E-2,-9.1459387E-4,1.59475E-2],"categories":[],"categories_nodes":[],"categories_segments":[],"categories_sizes":[],"default_left":[0,0,0,0,0,0,0,0,0,0,0,0,0,0,0],"id":55,"left_children":[1,3,5,-1,-1,7,9,-1,-1,11,13,-1,-1,-1,-1],"loss_changes":[2.4702768E0,5.149722E-2,1.0832901E0,0E0,0E0,1.6195196E-1,7.4353445E-1,0E0,0E0,3.3232772E-1,4.8351282E-1,0E0,0E0,0E0,0E0],"parents":[2147483647,0,0,1,1,2,2,5,5,6,6,9,9,10,10],"right_children":[2,4,6,-1,-1,8,10,-1,-1,12,14,-1,-1,-1,-1],"split_conditions":[2E0,1.5913872E2,2.2826087E-1,-2.2270987E-2,-5.7421424E-3,1.2337464E2,3E0,-1.3462134E-2,-3.746098E-4,8.822992E-1,9.755311E-1,3.3974287E-3,1.8225504E-2,-9.1459387E-4,1.59475E-2],"split_indices":[5,0,3,0,0,0,5,0,0,1,1,0,0,0,0],"split_type":[0,0,0,0,0,0,0,0,0,0,0,0,0,0,0],"sum_hessian":[6.97627E1,1.081242E1,5.8950283E1,8.507984E0,2.304435E0,9.974733E0,4.897555E1,6.5449824E0,3.429751E0,1.9583118E1,2.9392433E1,6.4804955E0,1.3102623E1,2.6364204E1,3.0282273E0],"tree_param":{"num_deleted":"0","num_feature":"6","num_nodes":"15","size_leaf_vector":"1"}},{"base_weights":[-5.444751E-3,-4.009477E-1,7.5538754E-2,-2.194669E-2,-5.8324253E-3,-6.330158E-3,2.6244372E-1,-9.670272E-2,1.4015271E-1,2.9559794E-1,1.0548709E-3,-1.5668595E-2,-2.3540512E-3,1.4372046E-2,-7.1064517E-4,6.952201E-3,2.0527322E-2],"categories":[],"categories_nodes":[],"categories_segments":[],"categories_sizes":[],"default_left":[0,0,0,0,0,0,0,0,0,0,0,0,0,0,0,0,0],"id":56,"left_children":[1,3,5,-1,-1,7,9,11,13,15,-1,-1,-1,-1,-1,-1,-1],"loss_changes":[2.3570063E0,3.2621384E-2,9.397137E-1,0E0,0E0,6.163039E-1,1.37056E-1,2.7916032E-1,4.1284475E-1,1.7873752E-1,0E0,0E0,0E0,0E0,0E0,0E0,0E0],"parents":[2147483647,0,0,1,1,2,2,5,5,6,6,7,7,8,8,9,9],"right_children":[2,4,6,-1,-1,8,10,12,14,16,-1,-1,-1,-1,-1,-1,-1],"split_conditions":[2E0,3.030303E-1,2.8E1,-2.194669E-2,-5.8324253E-3,9.2200404E-1,1.860589E2,8.183793E-1,1.2826642E2,9.319056E-1,1.0548709E-3,-1.5668595E-2,-2.3540512E-3,1.4372046E-2,-7.1064517E-4,6.952201E-3,2.0527322E-2],"split_indices":[5,3,2,0,0,1,0,1,0,1,0,0,0,0,0,0,0],"split_type":[0,0,0,0,0,0,0,0,0,0,0,0,0,0,0,0,0],"sum_hessian":[6.969805E1,1.0502846E1,5.91952E1,8.305318E0,2.1975286E0,4.2507954E1,1.668725E1,2.6709318E1,1.5798635E1,1.4276487E1,2.4107633E0,2.9962022E0,2.3713116E1,7.202346E0,8.596289E0,7.9153833E0,6.3611035E0],"tree_param":{"num_deleted":"0","num_feature":"6","num_nodes":"17","size_leaf_vector":"1"}},{"base_weights":[-1.6950846E-3,-4.0395114E-1,8.304338E-2,-2.2101505E-2,-5.6041996E-3,4.365591E-3,2.6118037E-1,1.5050158E-1,-1.1244062E-1,1.5985508E-1,1.8534906E-2,-6.291464E-3,1.1017115E-2,-7.753803E-3,6.2499107E-3,1.2980609E-2,2.9967078E-3],"categories":[],"categories_nodes":[],"categories_segments":[],"categories_sizes":[],"default_left":[0,0,0,0,0,0,0,0,0,0,0,0,0,0,0,0,0],"id":57,"left_children":[1,3,5,-1,-1,7,9,11,13,15,-1,-1,-1,-1,-1,-1,-1],"loss_changes":[2.4817653E0,4.1695356E-2,8.41058E-1,0E0,0E0,7.810118E-1,8.567119E-2,4.4722182E-1,2.9662845E-1,9.919998E-2,0E0,0E0,0E0,0E0,0E0,0E0,0E0],"parents":[2147483647,0,0,1,1,2,2,5,5,6,6,7,7,8,8,9,9],"right_children":[2,4,6,-1,-1,8,10,12,14,16,-1,-1,-1,-1,-1,-1,-1],"split_conditions":[2E0,3.030303E-1,9.403174E-1,-2.2101505E-2,-5.6041996E-3,3E0,9.7007406E-1,2.2727273E-1,2.9E1,3E0,1.8534906E-2,-6.291464E-3,1.1017115E-2,-7.753803E-3,6.2499107E-3,1.2980609E-2,2.9967078E-3],"split_indices":[5,3,1,0,0,5,1,3,2,5,0,0,0,0,0,0,0],"split_type":[0,0,0,0,0,0,0,0,0,0,0,0,0,0,0,0,0],"sum_hessian":[6.883948E1,1.0667321E1,5.817216E1,8.525984E0,2.1413374E0,4.1771812E1,1.6400349E1,1.8299902E1,2.347191E1,1.1073997E1,5.326353E0,3.3685637E0,1.4931337E1,2.0486954E1,2.9849565E0,3.942053E0,7.131943E0],"tree_param":{"num_deleted":"0","num_feature":"6","num_nodes":"17","size_leaf_vector":"1"}},{"base_weights":[-1.568799E-2,-3.938727E-1,6.1703555E-2,-2.1727694E-2,-5.624281E-3,1.985444E-1,-4.302295E-2,-8.763482E-3,2.6176906E-1,-1.2395977E-1,1.790258E-1,3.256979E-3,1.727763E-2,-1.3850527E-2,-4.077851E-3,-2.4783013E-3,1.6269466E-2],"categories":[],"categories_nodes":[],"categories_segments":[],"categories_sizes":[],"default_left":[0,0,0,0,0,0,0,0,0,0,0,0,0,0,0,0,0],"id":58,"left_children":[1,3,5,-1,-1,7,9,-1,11,13,15,-1,-1,-1,-1,-1,-1],"loss_changes":[2.1136189E0,4.253912E-2,8.8120854E-1,0E0,0E0,7.1800244E-1,6.877957E-1,0E0,3.4156847E-1,1.3275984E-1,3.7960547E-1,0E0,0E0,0E0,0E0,0E0,0E0],"parents":[2147483647,0,0,1,1,2,2,5,5,6,6,8,8,9,9,10,10],"right_children":[2,4,6,-1,-1,8,10,-1,12,14,16,-1,-1,-1,-1,-1,-1],"split_conditions":[2E0,3.030303E-1,3E0,-2.1727694E-2,-5.624281E-3,2.2222222E-1,9.518986E-1,-8.763482E-3,8.822992E-1,8.391383E-1,2.6732674E-1,3.256979E-3,1.727763E-2,-1.3850527E-2,-4.077851E-3,-2.4783013E-3,1.6269466E-2],"split_indices":[5,3,5,0,0,3,1,0,1,1,3,0,0,0,0,0,0],"split_type":[0,0,0,0,0,0,0,0,0,0,0,0,0,0,0,0,0],"sum_hessian":[6.855457E1,1.0256421E1,5.8298153E1,8.009765E0,2.2466567E0,2.449721E1,3.380094E1,3.031168E0,2.1466042E1,2.5419147E1,8.381795E0,7.4759264E0,1.3990115E1,3.1139183E0,2.230523E1,3.7881422E0,4.593653E0],"tree_param":{"num_deleted":"0","num_feature":"6","num_nodes":"17","size_leaf_vector":"1"}},{"base_weights":[-3.0063957E-3,-3.9000595E-1,7.70325E-2,-2.1638207E-2,-4.6738163E-3,3.066365E-2,2.05865E-2,-6.4349234E-2,1.5185808E-1,-1.4728225E-2,-5.230171E-4,1.4102188E-2,1.0395538E-3],"categories":[],"categories_nodes":[],"categories_segments":[],"categories_sizes":[],"default_left":[0,0,0,0,0,0,0,0,0,0,0,0,0],"id":59,"left_children":[1,3,5,-1,-1,7,-1,9,11,-1,-1,-1,-1],"loss_changes":[2.2071226E0,7.3889494E-2,8.920525E-1,0E0,0E0,6.4222026E-1,0E0,3.8731247E-1,4.0390557E-1,0E0,0E0,0E0,0E0],"parents":[2147483647,0,0,1,1,2,2,5,5,7,7,8,8],"right_children":[2,4,6,-1,-1,8,-1,10,12,-1,-1,-1,-1],"split_conditions":[2E0,3.030303E-1,9.726629E-1,-2.1638207E-2,-4.6738163E-3,2.685185E-1,2.05865E-2,8.412537E-1,3E0,-1.4728225E-2,-5.230171E-4,1.4102188E-2,1.0395538E-3],"split_indices":[5,3,1,0,0,3,0,1,5,0,0,0,0],"split_type":[0,0,0,0,0,0,0,0,0,0,0,0,0],"sum_hessian":[6.7315094E1,1.0208777E1,5.7106316E1,8.119171E0,2.089606E0,5.207509E1,5.031229E0,2.971639E1,2.2358698E1,3.9423294E0,2.5774061E1,1.0061272E1,1.2297427E1],"tree_param":{"num_deleted":"0","num_feature":"6","num_nodes":"13","size_leaf_vector":"1"}},{"base_weights":[-5.5370815E-3,-3.948586E-1,7.386806E-2,-2.14767E-2,-5.759273E-3,-9.132934E-2,1.6483268E-1,-1.3198594E-2,1.5410792E-2,7.857891E-2,3.1230554E-1,6.38366E-3,-9.336329E-3,7.0157843E-3,-4.278075E-3,3.5663855E-3,1.7541017E-2],"categories":[],"categories_nodes":[],"categories_segments":[],"categories_sizes":[],"default_left":[0,0,0,0,0,0,0,0,0,0,0,0,0,0,0,0,0],"id":60,"left_children":[1,3,5,-1,-1,7,9,-1,11,13,15,-1,-1,-1,-1,-1,-1],"loss_changes":[2.1863992E0,1.7195582E-2,9.14622E-1,0E0,0E0,4.1703027E-1,4.4283366E-1,0E0,4.0170777E-1,2.9835728E-1,7.616973E-2,0E0,0E0,0E0,0E0,0E0,0E0],"parents":[2147483647,0,0,1,1,2,2,5,5,6,6,8,8,9,9,10,10],"right_children":[2,4,6,-1,-1,8,10,-1,12,14,16,-1,-1,-1,-1,-1,-1],"split_conditions":[2E0,3.0107528E-1,2.5E1,-2.14767E-2,-5.759273E-3,8.682142E-1,9.43009E-1,-1.3198594E-2,1.2794308E2,1.5777809E2,1.3281525E2,6.38366E-3,-9.336329E-3,7.0157843E-3,-4.278075E-3,3.5663855E-3,1.7541017E-2],"split_indices":[5,3,2,0,0,1,1,0,0,0,0,0,0,0,0,0,0],"split_type":[0,0,0,0,0,0,0,0,0,0,0,0,0,0,0,0,0],"sum_hessian":[6.683792E1,9.9767475E0,5.686117E1,7.922755E0,2.053993E0,2.0188885E1,3.6672287E1,6.587742E0,1.3601143E1,2.5073183E1,1.1599104E1,9.218287E0,4.382855E0,1.8431131E1,6.6420507E0,2.3843997E0,9.214704E0],"tree_param":{"num_deleted":"0","num_feature":"6","num_nodes":"17","size_leaf_vector":"1"}},{"base_weights":[5.7850224E-3,-1.9252552E-2,8.172409E-2,-5.464607E-3,2.9021752E-1,-1.8430686E-2,3.166309E-2,3.2998216E-1,7.570907E-4,4.5037135E-3,-9.8624965E-3,2.169937E-2,8.548806E-3],"categories":[],"categories_nodes":[],"categories_segments":[],"categories_sizes":[],"default_left":[0,0,0,0,0,0,0,0,0,0,0,0,0],"id":61,"left_children":[1,-1,3,5,7,-1,9,11,-1,-1,-1,-1,-1],"loss_changes":[2.07799E0,0E0,1.0665576E0,6.0595596E-1,1.7909002E-1,0E0,5.8435047E-1,9.977257E-2,0E0,0E0,0E0,0E0,0E0],"parents":[2147483647,0,0,2,2,3,3,4,4,6,6,7,7],"right_children":[2,-1,4,6,8,-1,10,12,-1,-1,-1,-1,-1],"split_conditions":[2E0,-1.9252552E-2,2.8E1,1E0,3.4E1,-1.8430686E-2,6E0,3E0,7.570907E-4,4.5037135E-3,-9.8624965E-3,2.169937E-2,8.548806E-3],"split_indices":[5,0,2,4,2,0,5,5,0,0,0,0,0],"split_type":[0,0,0,0,0,0,0,0,0,0,0,0,0],"sum_hessian":[6.589328E1,9.395639E0,5.6497643E1,4.12113E1,1.5286344E1,2.1662724E0,3.9045025E1,1.3006874E1,2.27947E0,3.207385E1,6.971179E0,5.772409E0,7.234465E0],"tree_param":{"num_deleted":"0","num_feature":"6","num_nodes":"13","size_leaf_vector":"1"}},{"base_weights":[9.393062E-3,-3.833733E-1,8.6834095E-2,-2.0911548E-2,-5.7925633E-3,-3.8423777E-2,2.2898322E-1,-1.7364988E-1,2.7193224E-2,3.2639438E-1,1.2192821E-1,-1.4013979E-2,-1.8867453E-3,9.112063E-3,-7.675167E-3,4.4782218E-3,1.8601341E-2,2.6426092E-3,1.3677715E-2],"categories":[],"categories_nodes":[],"categories_segments":[],"categories_sizes":[],"default_left":[0,0,0,0,0,0,0,0,0,0,0,0,0,0,0,0,0,0,0],"id":62,"left_children":[1,3,5,-1,-1,7,9,11,13,15,17,-1,-1,-1,-1,-1,-1,-1,-1],"loss_changes":[2.1003666E0,9.231687E-3,1.0411066E0,0E0,0E0,2.957789E-1,2.0419943E-1,1.3556436E-1,7.1311504E-1,7.4456215E-2,1.4031506E-1,0E0,0E0,0E0,0E0,0E0,0E0,0E0,0E0],"parents":[2147483647,0,0,1,1,2,2,5,5,6,6,7,7,8,8,9,9,10,10],"right_children":[2,4,6,-1,-1,8,10,12,14,16,18,-1,-1,-1,-1,-1,-1,-1,-1],"split_conditions":[2E0,1.5913872E2,2.685185E-1,-2.0911548E-2,-5.7925633E-3,2.254902E-1,3E0,1.1728922E2,1.2826642E2,2.7E1,3.2258064E-1,-1.4013979E-2,-1.8867453E-3,9.112063E-3,-7.675167E-3,4.4782218E-3,1.8601341E-2,2.6426092E-3,1.3677715E-2],"split_indices":[5,0,3,0,0,3,5,0,0,2,3,0,0,0,0,0,0,0,0],"split_type":[0,0,0,0,0,0,0,0,0,0,0,0,0,0,0,0,0,0,0],"sum_hessian":[6.486517E1,9.381736E0,5.548344E1,7.3034115E0,2.0783248E0,3.0269863E1,2.5213577E1,8.813605E0,2.1456259E1,1.1055918E1,1.415766E1,3.7484713E0,5.065134E0,1.1538482E1,9.917777E0,2.743382E0,8.312535E0,1.1579532E1,2.5781279E0],"tree_param":{"num_deleted":"0","num_feature":"6","num_nodes":"19","size_leaf_vector":"1"}},{"base_weights":[-6.293598E-3,-3.7346742E-1,6.645986E-2,-2.0742126E-2,-5.059857E-3,-1.9565178E-2,2.7413335E-1,-5.4662548E-2,1.6945122E-2,3.0725747E-1,2.1121146E-3,3.7553767E-4,-1.47602875E-2,2.1938343E-2,6.7650187E-3],"categories":[],"categories_nodes":[],"categories_segments":[],"categories_sizes":[],"default_left":[0,0,0,0,0,0,0,0,0,0,0,0,0,0,0],"id":63,"left_children":[1,3,5,-1,-1,7,9,11,-1,13,-1,-1,-1,-1,-1],"loss_changes":[1.8389716E0,4.4231296E-2,1.0398214E0,0E0,0E0,5.729887E-1,1.0466361E-1,6.1044824E-1,0E0,2.1055508E-1,0E0,0E0,0E0,0E0,0E0],"parents":[2147483647,0,0,1,1,2,2,5,5,6,6,7,7,9,9],"right_children":[2,4,6,-1,-1,8,10,12,-1,14,-1,-1,-1,-1,-1],"split_conditions":[2E0,1.5913872E2,2.8E1,-2.0742126E-2,-5.059857E-3,9.755311E-1,3.4E1,1.573246E2,1.6945122E-2,3E0,2.1121146E-3,3.7553767E-4,-1.47602875E-2,2.1938343E-2,6.7650187E-3],"split_indices":[5,0,2,0,0,1,2,0,0,5,0,0,0,0,0],"split_type":[0,0,0,0,0,0,0,0,0,0,0,0,0,0,0],"sum_hessian":[6.49831E1,9.379543E0,5.5603558E1,7.233094E0,2.1464493E0,4.05981E1,1.5005459E1,3.85215E1,2.0765984E0,1.2561163E1,2.4442956E0,3.2149387E1,6.372113E0,5.3592806E0,7.2018824E0],"tree_param":{"num_deleted":"0","num_feature":"6","num_nodes":"15","size_leaf_vector":"1"}},{"base_weights":[6.6906027E-3,-3.7333855E-1,7.923726E-2,-2.0600611E-2,-5.019491E-3,-2.991094E-2,2.2978413E-1,-1.1810984E-1,1.8910523E-1,1.4361247E-1,2.2187226E-2,-1.6499128E-2,-3.1100907E-3,1.31618995E-2,3.2953972E-3,1.2284744E-2,-3.2999222E-3],"categories":[],"categories_nodes":[],"categories_segments":[],"categories_sizes":[],"default_left":[0,0,0,0,0,0,0,0,0,0,0,0,0,0,0,0,0],"id":64,"left_children":[1,3,5,-1,-1,7,9,11,13,15,-1,-1,-1,-1,-1,-1,-1],"loss_changes":[1.9031625E0,3.4147143E-2,9.637251E-1,0E0,0E0,7.2625506E-1,3.2479084E-1,2.714954E-1,6.48385E-2,4.6986762E-1,0E0,0E0,0E0,0E0,0E0,0E0,0E0],"parents":[2147483647,0,0,1,1,2,2,5,5,6,6,7,7,8,8,9,9],"right_children":[2,4,6,-1,-1,8,10,12,14,16,-1,-1,-1,-1,-1,-1,-1],"split_conditions":[2E0,3.0107528E-1,9.213489E-1,-2.0600611E-2,-5.019491E-3,2.815534E-1,9.755311E-1,8.219101E-1,3E0,1.5804657E2,2.2187226E-2,-1.6499128E-2,-3.1100907E-3,1.31618995E-2,3.2953972E-3,1.2284744E-2,-3.2999222E-3],"split_indices":[5,3,1,0,0,3,1,1,5,0,0,0,0,0,0,0,0],"split_type":[0,0,0,0,0,0,0,0,0,0,0,0,0,0,0,0,0],"sum_hessian":[6.48846E1,9.071578E0,5.581302E1,7.053244E0,2.0183344E0,3.3284218E1,2.2528801E1,2.4385506E1,8.898712E0,1.844327E1,4.0855308E0,3.044268E0,2.1341238E1,4.1362977E0,4.762415E0,1.2171396E1,6.2718744E0],"tree_param":{"num_deleted":"0","num_feature":"6","num_nodes":"17","size_leaf_vector":"1"}},{"base_weights":[-1.0324072E-2,-3.5816842E-1,5.5600345E-2,-1.9902647E-2,-4.9239094E-3,-1.4283091E-2,8.920675E-2,2.2027087E-1,-9.309975E-3,1.3997015E-3,1.3807619E-2,-2.7992574E-3,1.4855715E-2],"categories":[],"categories_nodes":[],"categories_segments":[],"categories_sizes":[],"default_left":[0,0,0,0,0,0,0,0,0,0,0,0,0],"id":65,"left_children":[1,3,5,-1,-1,-1,7,9,11,-1,-1,-1,-1],"loss_changes":[1.5655105E0,3.417921E-2,7.1228164E-1,0E0,0E0,0E0,7.0158035E-1,2.3447156E-1,5.0176966E-1,0E0,0E0,0E0,0E0],"parents":[2147483647,0,0,1,1,2,2,6,6,7,7,8,8],"right_children":[2,4,6,-1,-1,-1,8,10,12,-1,-1,-1,-1],"split_conditions":[2E0,1.5913872E2,8.1976974E-1,-1.9902647E-2,-4.9239094E-3,-1.4283091E-2,3E0,2.4E1,9.755311E-1,1.3997015E-3,1.3807619E-2,-2.7992574E-3,1.4855715E-2],"split_indices":[5,0,1,0,0,0,5,2,1,0,0,0,0],"split_type":[0,0,0,0,0,0,0,0,0,0,0,0,0],"sum_hessian":[6.4532326E1,8.869127E0,5.56632E1,6.7645903E0,2.1045375E0,3.645355E0,5.2017845E1,2.1261002E1,3.0756842E1,5.4636397E0,1.5797362E1,2.8109705E1,2.6471372E0],"tree_param":{"num_deleted":"0","num_feature":"6","num_nodes":"13","size_leaf_vector":"1"}},{"base_weights":[1.0633323E-3,-3.6067367E-1,6.607252E-2,-2.001383E-2,-4.9090353E-3,-1.3135864E-2,1.0642085E-1,3.1451687E-2,2.7027833E-1,-1.3664276E-4,1.6446078E-2,1.5261406E-2,8.34608E-4],"categories":[],"categories_nodes":[],"categories_segments":[],"categories_sizes":[],"default_left":[0,0,0,0,0,0,0,0,0,0,0,0,0],"id":66,"left_children":[1,3,5,-1,-1,-1,7,9,11,-1,-1,-1,-1],"loss_changes":[1.6171058E0,3.0308723E-2,8.2883203E-1,0E0,0E0,0E0,6.379639E-1,3.967989E-1,1.3580918E-1,0E0,0E0,0E0,0E0],"parents":[2147483647,0,0,1,1,2,2,6,6,7,7,8,8],"right_children":[2,4,6,-1,-1,-1,8,10,12,-1,-1,-1,-1],"split_conditions":[2E0,2.9591838E-1,8.364984E-1,-2.001383E-2,-4.9090353E-3,-1.3135864E-2,2.8E1,9.755311E-1,3.4E1,-1.3664276E-4,1.6446078E-2,1.5261406E-2,8.34608E-4],"split_indices":[5,3,1,0,0,0,2,1,2,0,0,0,0],"split_type":[0,0,0,0,0,0,0,0,0,0,0,0,0],"sum_hessian":[6.473878E1,8.476436E0,5.626234E1,6.453043E0,2.0233927E0,4.9449058E0,5.1317436E1,3.6844147E1,1.4473288E1,3.4823895E1,2.0202544E0,1.2362209E1,2.1110785E0],"tree_param":{"num_deleted":"0","num_feature":"6","num_nodes":"13","size_leaf_vector":"1"}},{"base_weights":[-6.6891927E-3,-1.1507405E-1,1.2766074E-1,-2.3133703E-1,-2.7614795E-2,4.0477443E-2,1.6187863E-2,-1.311822E-2,-1.0315208E-3,4.7230802E-2,-1.3297755E-1,-3.4165747E-2,1.5200764E-1,-4.303876E-3,1.0958306E-2,-1.1938957E-2,-1.7023223E-3,1.1991345E-3,-8.779407E-3,1.1591716E-2,-2.705207E-3],"categories":[],"categories_nodes":[],"categories_segments":[],"categories_sizes":[],"default_left":[0,0,0,0,0,0,0,0,0,0,0,0,0,0,0,0,0,0,0,0,0],"id":67,"left_children":[1,3,5,7,9,11,-1,-1,-1,13,15,17,19,-1,-1,-1,-1,-1,-1,-1,-1],"loss_changes":[9.8695785E-1,3.6801988E-1,4.9200436E-1,9.251034E-2,1.9901074E-1,2.0409586E-1,0E0,0E0,0E0,3.8839856E-1,9.2011094E-2,1.3648081E-1,1.8461892E-1,0E0,0E0,0E0,0E0,0E0,0E0,0E0,0E0],"parents":[2147483647,0,0,1,1,2,2,3,3,4,4,5,5,9,9,10,10,11,11,12,12],"right_children":[2,4,6,8,10,12,-1,-1,-1,14,16,18,20,-1,-1,-1,-1,-1,-1,-1,-1],"split_conditions":[2.685185E-1,8.8065034E-1,9.5105433E-1,2.6E1,1.2826642E2,2.9E1,1.6187863E-2,-1.311822E-2,-1.0315208E-3,1.2212653E2,1.4474625E2,9.3141586E-1,1.7953282E2,-4.303876E-3,1.0958306E-2,-1.1938957E-2,-1.7023223E-3,1.1991345E-3,-8.779407E-3,1.1591716E-2,-2.705207E-3],"split_indices":[3,1,1,2,0,2,0,0,0,0,0,1,0,0,0,0,0,0,0,0,0],"split_type":[0,0,0,0,0,0,0,0,0,0,0,0,0,0,0,0,0,0,0,0,0],"sum_hessian":[6.3760887E1,3.5449482E1,2.8311405E1,1.38062E1,2.164328E1,2.1268427E1,7.042978E0,1.1606735E1,2.1994653E0,1.3299381E1,8.343899E0,1.3572298E1,7.696129E0,8.053727E0,5.2456546E0,2.665794E0,5.6781054E0,1.0794695E1,2.7776031E0,5.367651E0,2.3284779E0],"tree_param":{"num_deleted":"0","num_feature":"6","num_nodes":"21","size_leaf_vector":"1"}},{"base_weights":[-1.50293615E-2,-3.608906E-1,5.190858E-2,-1.9838741E-2,-5.4898183E-3,-1.1087234E-1,1.4226548E-1,-2.2318523E-1,3.9360207E-2,2.6988935E-1,4.219953E-2,-1.244467E-2,-3.2728955E-3,5.0146333E-3,-5.404505E-3,1.6450314E-2,1.2682596E-3,-1.8644644E-3,1.2598147E-2],"categories":[],"categories_nodes":[],"categories_segments":[],"categories_sizes":[],"default_left":[0,0,0,0,0,0,0,0,0,0,0,0,0,0,0,0,0,0,0],"id":68,"left_children":[1,3,5,-1,-1,7,9,11,13,15,17,-1,-1,-1,-1,-1,-1,-1,-1],"loss_changes":[1.5199538E0,8.697391E-3,8.463871E-1,0E0,0E0,3.7019596E-1,4.4336778E-1,1.7122507E-2,1.1727964E-1,2.0984018E-1,3.994557E-1,0E0,0E0,0E0,0E0,0E0,0E0,0E0,0E0],"parents":[2147483647,0,0,1,1,2,2,5,5,6,6,7,7,8,8,9,9,10,10],"right_children":[2,4,6,-1,-1,8,10,12,14,16,18,-1,-1,-1,-1,-1,-1,-1,-1],"split_conditions":[2E0,1.5913872E2,8.822992E-1,-1.9838741E-2,-5.4898183E-3,2.6E1,3E0,8.689806E-1,8.729664E-1,1.5777809E2,9.675246E-1,-1.244467E-2,-3.2728955E-3,5.0146333E-3,-5.404505E-3,1.6450314E-2,1.2682596E-3,-1.8644644E-3,1.2598147E-2],"split_indices":[5,0,1,0,0,2,5,1,1,0,1,0,0,0,0,0,0,0,0],"split_type":[0,0,0,0,0,0,0,0,0,0,0,0,0,0,0,0,0,0,0],"sum_hessian":[6.2034897E1,8.63515E0,5.3399746E1,6.540126E0,2.0950239E0,1.8898813E1,3.450093E1,1.0258459E1,8.640354E0,1.3670886E1,2.0830046E1,7.826769E0,2.4316907E0,6.5664654E0,2.073889E0,1.0452794E1,3.2180927E0,1.6298334E1,4.5317106E0],"tree_param":{"num_deleted":"0","num_feature":"6","num_nodes":"19","size_leaf_vector":"1"}},{"base_weights":[-1.4455285E-2,-8.666467E-2,1.6467984E-1,-1.150625E-1,1.36841405E-2,2.2935435E-1,2.8401092E-3,-1.748508E-2,-7.584168E-2,4.8695292E-2,1.6187368E-2,4.0866225E-3,-4.7622095E-3,-9.6220494E-4,-1.4121025E-2,-2.542936E-3,7.5289086E-3],"categories":[],"categories_nodes":[],"categories_segments":[],"categories_sizes":[],"default_left":[0,0,0,0,0,0,0,0,0,0,0,0,0,0,0,0,0],"id":69,"left_children":[1,3,5,7,-1,9,11,-1,13,15,-1,-1,-1,-1,-1,-1,-1],"loss_changes":[8.671111E-1,5.4919505E-1,2.0085758E-1,3.6523014E-1,0E0,2.0336676E-1,7.391199E-2,0E0,4.7429138E-1,8.714059E-2,0E0,0E0,0E0,0E0,0E0,0E0,0E0],"parents":[2147483647,0,0,1,1,2,2,3,3,5,5,6,6,8,8,9,9],"right_children":[2,4,6,8,-1,10,12,-1,14,16,-1,-1,-1,-1,-1,-1,-1],"split_conditions":[2.8E1,9.755311E-1,1.7180731E2,8.183793E-1,1.36841405E-2,2.9E1,3.1111112E-1,-1.748508E-2,1.573246E2,9.175493E-1,1.6187368E-2,4.0866225E-3,-4.7622095E-3,-9.6220494E-4,-1.4121025E-2,-2.542936E-3,7.5289086E-3],"split_indices":[2,1,0,1,0,2,3,0,0,1,0,0,0,0,0,0,0],"split_type":[0,0,0,0,0,0,0,0,0,0,0,0,0,0,0,0,0],"sum_hessian":[6.2828136E1,4.5513893E1,1.7314243E1,4.3451035E1,2.0628572E0,1.17745495E1,5.5396934E0,3.9553933E0,3.949564E1,5.0812616E0,6.693288E0,3.2550094E0,2.284684E0,3.2718014E1,6.777629E0,3.0766056E0,2.004656E0],"tree_param":{"num_deleted":"0","num_feature":"6","num_nodes":"17","size_leaf_vector":"1"}},{"base_weights":[6.0469056E-3,-1.8060187E-2,7.3180795E-2,-2.8758456E-3,2.4938622E-1,-1.4234963E-2,3.1403333E-2,2.884999E-1,3.616592E-3,4.231413E-3,-8.213292E-3,2.7565463E-3,1.9645879E-2],"categories":[],"categories_nodes":[],"categories_segments":[],"categories_sizes":[],"default_left":[0,0,0,0,0,0,0,0,0,0,0,0,0],"id":70,"left_children":[1,-1,3,5,7,-1,9,11,-1,-1,-1,-1,-1],"loss_changes":[1.6345136E0,0E0,7.5058067E-1,4.1419366E-1,7.513833E-2,0E0,4.2746788E-1,2.77202E-1,0E0,0E0,0E0,0E0,0E0],"parents":[2147483647,0,0,2,2,3,3,4,4,6,6,7,7],"right_children":[2,-1,4,6,8,-1,10,12,-1,-1,-1,-1,-1],"split_conditions":[2E0,-1.8060187E-2,2.8E1,8.183793E-1,1.7953282E2,-1.4234963E-2,6E0,2.9E1,3.616592E-3,4.231413E-3,-8.213292E-3,2.7565463E-3,1.9645879E-2],"split_indices":[5,0,2,1,0,0,5,2,0,0,0,0,0],"split_type":[0,0,0,0,0,0,0,0,0,0,0,0,0],"sum_hessian":[6.2151276E1,8.251484E0,5.389979E1,3.9023285E1,1.4876504E1,2.6473877E0,3.6375896E1,1.1153635E1,3.7228694E0,2.9489346E1,6.8865533E0,4.392518E0,6.7611165E0],"tree_param":{"num_deleted":"0","num_feature":"6","num_nodes":"13","size_leaf_vector":"1"}},{"base_weights":[9.714272E-3,-1.7702252E-2,7.6601714E-2,-5.2248966E-3,2.662132E-1,-7.321917E-2,1.528566E-1,1.4710915E-1,1.8940235E-2,-1.3986904E-3,-1.3965884E-2,1.1250664E-2,-2.7021577E-3,-3.491591E-5,1.1179956E-2],"categories":[],"categories_nodes":[],"categories_segments":[],"categories_sizes":[],"default_left":[0,0,0,0,0,0,0,0,0,0,0,0,0,0,0],"id":71,"left_children":[1,-1,3,5,7,9,11,13,-1,-1,-1,-1,-1,-1,-1],"loss_changes":[1.5891229E0,0E0,8.5503167E-1,4.5590207E-1,1.11121416E-1,2.5996688E-1,2.1508694E-1,1.2846667E-1,0E0,0E0,0E0,0E0,0E0,0E0,0E0],"parents":[2147483647,0,0,2,2,3,3,4,4,5,5,6,6,7,7],"right_children":[2,-1,4,6,8,10,12,14,-1,-1,-1,-1,-1,-1,-1],"split_conditions":[2E0,-1.7702252E-2,9.385399E-1,2.815534E-1,9.694743E-1,1.5755801E2,3.1683168E-1,2.6732674E-1,1.8940235E-2,-1.3986904E-3,-1.3965884E-2,1.1250664E-2,-2.7021577E-3,-3.491591E-5,1.1179956E-2],"split_indices":[5,0,1,3,1,0,3,3,0,0,0,0,0,0,0],